freq_GHz,ReS11_mean,ReS11_std,ImS11_mean,ImS11_std,ReS21_mean,ReS21_std,ImS21_mean,ImS21_std,ReS22_mean,ReS22_std,ImS22_mean,ImS22_std
0.04,0.00019589871,0.0016719935,-1.2211544e-07,2.185244e-06,-0.00017166787,0.00080669497,3.7078905e-07,1.4544398e-06,0.00017272585,0.0008116017,-9.749225e-06,2.7927e-05
0.14013824884792628,0.00019589758,0.0016719876,-4.2740123e-07,7.648334e-06,-0.00017166109,0.00080666976,1.2977274e-06,5.0903286e-06,0.00017228634,0.0008114808,-3.411766e-05,9.7734555e-05
0.24027649769585255,0.00019589605,0.0016719744,-7.3268166e-07,1.3111331e-05,-0.00017164646,0.0008066164,2.2245517e-06,8.7255185e-06,0.00017136079,0.00081123284,-5.8470905e-05,0.00016750931
0.3404147465437788,0.00019589059,0.0016719525,-1.03795e-06,1.8574201e-05,-0.00017162498,0.00080653507,3.151181e-06,1.2359527e-05,0.00016994894,0.0008108672,-8.279802e-05,0.0002372271
0.44055299539170506,0.00019588589,0.0016719234,-1.3432062e-06,2.4036872e-05,-0.00017159518,0.00080642686,4.077525e-06,1.5991825e-05,0.0001680493,0.0008103988,-0.000107088315,0.00030686505
0.5406912442396314,0.00019587934,0.0016718864,-1.6484474e-06,2.9499282e-05,-0.00017155825,0.0008062892,5.0035187e-06,1.9621928e-05,0.00016566661,0.0008098493,-0.00013133079,0.00037639914
0.6408294930875577,0.00019586935,0.0016718447,-1.953661e-06,3.49614e-05,-0.00017151357,0.00080612395,5.929073e-06,2.324937e-05,0.00016280009,0.00080924487,-0.00015551466,0.00044580648
0.7409677419354839,0.00019586066,0.0016717932,-2.2588551e-06,4.0423125e-05,-0.0001714614,0.0008059306,6.85411e-06,2.6873606e-05,0.00015945264,0.0008086169,-0.00017962909,0.00051506376
0.8411059907834102,0.0001958492,0.0016717343,-2.5640297e-06,4.588445e-05,-0.00017140136,0.0008057104,7.778516e-06,3.0494237e-05,0.0001556253,0.00080800283,-0.00020366405,0.00058414694
0.9412442396313365,0.00019583714,0.0016716712,-2.8691459e-06,5.1345225e-05,-0.00017133454,0.0008054619,8.702257e-06,3.4110657e-05,0.00015132097,0.0008074457,-0.00022760859,0.00065303454
1.0413824884792628,0.00019582234,0.0016715972,-3.1742497e-06,5.6805544e-05,-0.00017125948,0.0008051858,9.6252115e-06,3.772247e-05,0.00014654097,0.0008069915,-0.00025145206,0.0007217032
1.141520737327189,0.00019580773,0.0016715162,-3.4792859e-06,6.226522e-05,-0.0001711773,0.0008048823,1.0547348e-05,4.1329124e-05,0.00014128929,0.00080669567,-0.0002751832,0.0007901295
1.2416589861751153,0.0001957907,0.0016714287,-3.7842806e-06,6.772424e-05,-0.00017108752,0.00080455106,1.1468531e-05,4.4930177e-05,0.00013556963,0.00080661004,-0.0002987934,0.0008582932
1.3417972350230416,0.00019577157,0.0016713353,-4.0892355e-06,7.318255e-05,-0.00017099017,0.0008041922,1.2388701e-05,4.8525184e-05,0.00012938418,0.000806801,-0.0003222717,0.00092616904
1.4419354838709677,0.00019575181,0.0016712322,-4.394119e-06,7.864012e-05,-0.00017088566,0.00080380717,1.3307795e-05,5.2113628e-05,0.00012273662,0.0008073314,-0.0003456082,0.0009937377
1.542073732718894,0.00019573137,0.0016711238,-4.6990203e-06,8.409681e-05,-0.0001707735,0.00080339407,1.4225709e-05,5.569498e-05,0.00011563035,0.00080827135,-0.00036879155,0.0010609762
1.6422119815668204,0.00019570968,0.0016710061,-5.0037283e-06,8.955259e-05,-0.00017065363,0.00080295454,1.5142394e-05,5.9268856e-05,0.00010807077,0.00080969307,-0.00039181276,0.001127863
1.7423502304147467,0.00019568478,0.0016708843,-5.308467e-06,9.50075e-05,-0.0001705266,0.00080248783,1.6057726e-05,6.283479e-05,0.00010006116,0.0008116714,-0.00041466212,0.001194378
1.842488479262673,0.00019566009,0.0016707527,-5.6131307e-06,0.000100461424,-0.00017039194,0.0008019951,1.6971622e-05,6.639236e-05,9.160755e-05,0.0008142838,-0.0004373308,0.0012604989
1.942626728110599,0.00019563294,0.0016706154,-5.9176778e-06,0.000105914216,-0.0001702505,0.00080147467,1.7884073e-05,6.994094e-05,8.27139e-05,0.0008176083,-0.00045980807,0.0013262086
2.0427649769585257,0.0001956047,0.0016704698,-6.222127e-06,0.00011136585,-0.00017010089,0.00080092915,1.8794935e-05,7.348035e-05,7.3384224e-05,0.0008217219,-0.00048208502,0.0013914842
2.1429032258064518,0.00019557613,0.0016703154,-6.526567e-06,0.00011681654,-0.000169944,0.00080035615,1.9704126e-05,7.70099e-05,6.362573e-05,0.00082670327,-0.000504153,0.0014563055
2.243041474654378,0.0001955452,0.0016701543,-6.830879e-06,0.00012226582,-0.00016978009,0.000799757,2.0611567e-05,8.0529295e-05,5.344224e-05,0.0008326251,-0.00052600156,0.0015206554
2.3431797235023044,0.00019551291,0.0016699871,-7.1351105e-06,0.00012771398,-0.00016960895,0.0007991327,2.1517235e-05,8.403803e-05,4.2841853e-05,0.0008395632,-0.0005476221,0.0015845136
2.4433179723502305,0.00019547934,0.0016698132,-7.4392296e-06,0.00013316047,-0.0001694305,0.000798483,2.2421007e-05,8.753576e-05,3.1828422e-05,0.0008475861,-0.00056900893,0.0016478632
2.5434562211981566,0.00019544308,0.0016696333,-7.743273e-06,0.00013860581,-0.00016924465,0.00079780683,2.3322827e-05,9.1022026e-05,2.0409763e-05,0.00085675734,-0.0005901502,0.0017106828
2.643594470046083,0.00019540616,0.0016694439,-8.047176e-06,0.00014404974,-0.00016905133,0.0007971069,2.4222572e-05,9.44964e-05,8.589884e-06,0.00086713606,-0.0006110392,0.0017729561
2.7437327188940093,0.00019536862,0.001669248,-8.350996e-06,0.00014949206,-0.0001688512,0.0007963806,2.5120184e-05,9.7958444e-05,-3.6227902e-06,0.0008787753,-0.0006316669,0.0018346674
2.8438709677419354,0.00019532882,0.0016690454,-8.65469e-06,0.00015493293,-0.00016864373,0.00079563,2.6015634e-05,0.00010140787,-1.6220212e-05,0.00089172163,-0.0006520278,0.0018957981
2.944009216589862,0.00019528842,0.0016688354,-8.958263e-06,0.00016037199,-0.00016842918,0.00079485454,2.6908763e-05,0.0001048442,-2.9198765e-05,0.00090601266,-0.0006721116,0.001956333
3.044147465437788,0.00019524552,0.0016686169,-9.261723e-06,0.0001658094,-0.00016820701,0.0007940544,2.7799573e-05,0.00010826705,-4.2549054e-05,0.0009216794,-0.0006919103,0.0020162559
3.1442857142857146,0.00019520265,0.0016683933,-9.565061e-06,0.00017124535,-0.00016797852,0.0007932302,2.8687926e-05,0.00011167584,-5.6263983e-05,0.0009387468,-0.00071141927,0.0020755522
3.2444239631336407,0.0001951572,0.0016681597,-9.868232e-06,0.00017667928,-0.00016774258,0.0007923824,2.957379e-05,0.00011507071,-7.03366e-05,0.0009572291,-0.00073062914,0.0021342044
3.344562211981567,0.00019511009,0.0016679224,-1.0171318e-05,0.00018211137,-0.00016749956,0.0007915109,3.0457035e-05,0.000118450844,-8.475997e-05,0.0009771354,-0.00074953516,0.0021922009
3.4447004608294933,0.00019506236,0.0016676775,-1.0474239e-05,0.00018754155,-0.00016724961,0.00079061574,3.1337677e-05,0.000121816105,-9.9525336e-05,0.0009984698,-0.0007681309,0.0022495259
3.5448387096774194,0.0001950138,0.0016674246,-1.0776989e-05,0.00019296982,-0.00016699286,0.00078969746,3.221554e-05,0.00012516599,-0.00011462448,0.0010212234,-0.00078640867,0.0023061684
3.644976958525346,0.00019496157,0.0016671643,-1.1079625e-05,0.0001983962,-0.00016672873,0.0007887557,3.3090637e-05,0.00012850048,-0.00013004911,0.0010453872,-0.00080436113,0.0023621118
3.745115207373272,0.00019490873,0.001666897,-1.1382077e-05,0.0002038205,-0.00016645803,0.0007877925,3.3962773e-05,0.00013181867,-0.00014579383,0.0010709468,-0.0008219858,0.0024173486
3.845253456221198,0.00019485639,0.0016666258,-1.1684356e-05,0.0002092427,-0.00016618083,0.00078680576,3.483205e-05,0.00013512075,-0.00016184822,0.0010978767,-0.00083927327,0.0024718633
3.9453917050691247,0.00019480054,0.0016663444,-1.1986502e-05,0.00021466242,-0.0001658959,0.0007857972,3.5698253e-05,0.00013840618,-0.0001782045,0.0011261564,-0.0008562207,0.0025256434
4.045529953917051,0.00019474409,0.0016660569,-1.2288544e-05,0.00022008026,-0.00016560491,0.0007847671,3.656135e-05,0.00014167475,-0.00019485301,0.0011557565,-0.00087282126,0.002578683
4.145668202764977,0.0001946859,0.0016657626,-1.2590285e-05,0.00022549575,-0.00016530689,0.0007837148,3.7421272e-05,0.00014492606,-0.00021178764,0.0011866429,-0.0008890724,0.0026309672
4.2458064516129035,0.00019462657,0.0016654611,-1.2891915e-05,0.00023090905,-0.00016500271,0.0007826418,3.8277947e-05,0.00014815977,-0.00022899796,0.0012187838,-0.0009049685,0.0026824898
4.34594470046083,0.00019456551,0.0016651549,-1.3193353e-05,0.0002363198,-0.00016469092,0.00078154827,3.9131337e-05,0.0001513758,-0.00024647603,0.0012521421,-0.0009205049,0.002733238
4.446082949308756,0.0001945034,0.0016648396,-1.3494609e-05,0.00024172789,-0.0001643733,0.00078043307,3.9981325e-05,0.00015457375,-0.0002642134,0.0012866817,-0.0009356737,0.0027832035
4.546221198156682,0.0001944401,0.0016645174,-1.379557e-05,0.00024713395,-0.00016404878,0.0007792973,4.0827807e-05,0.00015775328,-0.00028219973,0.0013223656,-0.0009504772,0.00283238
4.646359447004609,0.00019437536,0.0016641897,-1.40964175e-05,0.00025253746,-0.00016371817,0.00077814213,4.1670864e-05,0.00016091434,-0.00030042906,0.0013591531,-0.000964909,0.0028807595
4.7464976958525344,0.00019430852,0.0016638538,-1.4397128e-05,0.00025793814,-0.00016338057,0.0007769661,4.251027e-05,0.00016405646,-0.0003188897,0.0013970064,-0.0009789636,0.002928338
4.846635944700461,0.00019423988,0.001663513,-1.46975335e-05,0.00026333597,-0.00016303644,0.0007757715,4.3346008e-05,0.00016717956,-0.00033757376,0.0014358866,-0.000992641,0.0029751027
4.9467741935483875,0.00019416978,0.0016631652,-1.4997768e-05,0.0002687314,-0.00016268651,0.000774558,4.4178003e-05,0.00017028317,-0.00035647262,0.0014757521,-0.0010059382,0.0030210523
5.046912442396313,0.00019409943,0.0016628116,-1.529774e-05,0.00027412424,-0.00016232973,0.0007733247,4.50063e-05,0.00017336727,-0.0003755779,0.0015165663,-0.0010188487,0.0030661796
5.14705069124424,0.00019402766,0.0016624483,-1.5597456e-05,0.00027951426,-0.000161967,0.0007720727,4.583071e-05,0.00017643181,-0.00039487856,0.0015582908,-0.0010313726,0.003110478
5.247188940092166,0.00019395401,0.0016620802,-1.5897032e-05,0.0002849013,-0.0001615979,0.000770803,4.665125e-05,0.000179476,-0.0004143694,0.0016008894,-0.0010435069,0.003153944
5.347327188940092,0.00019387869,0.0016617058,-1.619633e-05,0.00029028553,-0.00016122275,0.000769515,4.7467678e-05,0.00018250018,-0.00043403642,0.0016443207,-0.0010552511,0.003196573
5.4474654377880185,0.00019380215,0.001661323,-1.6495384e-05,0.00029566642,-0.00016084124,0.0007682088,4.828022e-05,0.000185504,-0.00045387613,0.0016885522,-0.0010666001,0.0032383618
5.547603686635945,0.00019372387,0.0016609342,-1.6794194e-05,0.00030104484,-0.00016045396,0.00076688634,4.90885e-05,0.00018848725,-0.00047387538,0.0017335456,-0.0010775574,0.0032793086
5.647741935483871,0.00019364452,0.0016605398,-1.7092787e-05,0.00030641974,-0.00016006059,0.00076554593,4.98927e-05,0.00019144984,-0.0004940239,0.001779265,-0.0010881193,0.0033194113
5.747880184331797,0.00019356288,0.0016601406,-1.7391101e-05,0.0003117921,-0.00015966117,0.0007641886,5.069262e-05,0.00019439147,-0.0005143208,0.0018256817,-0.00109828,0.003358665
5.848018433179724,0.00019348015,0.0016597336,-1.7689144e-05,0.0003171609,-0.00015925588,0.00076281576,5.1488325e-05,0.00019731202,-0.00053474976,0.0018727555,-0.0011080452,0.00339707
5.94815668202765,0.00019339734,0.0016593218,-1.7986937e-05,0.0003225267,-0.00015884476,0.000761426,5.2279564e-05,0.00020021145,-0.0005553026,0.0019204582,-0.001117411,0.0034346243
6.048294930875576,0.00019331247,0.0016589008,-1.8284372e-05,0.00032788937,-0.00015842776,0.0007600202,5.306646e-05,0.00020308944,-0.00057597476,0.0019687542,-0.0011263771,0.0034713293
6.148433179723503,0.00019322462,0.0016584729,-1.8581628e-05,0.00033324855,-0.00015800525,0.0007585993,5.3848886e-05,0.0002059459,-0.0005967534,0.00201762,-0.0011349451,0.003507181
6.248571428571429,0.0001931369,0.0016580418,-1.8878485e-05,0.00033860406,-0.00015757681,0.000757164,5.4626813e-05,0.00020878078,-0.00061763165,0.002067017,-0.0011431135,0.003542182
6.348709677419355,0.00019304716,0.0016576032,-1.917512e-05,0.00034395672,-0.00015714281,0.00075571286,5.5400138e-05,0.00021159402,-0.0006386001,0.0021169211,-0.0011508801,0.003576333
6.448847926267281,0.00019295656,0.0016571572,-1.9471448e-05,0.0003493058,-0.00015670346,0.0007542472,5.6168883e-05,0.00021438544,-0.0006596518,0.002167301,-0.0011582493,0.003609633
6.548986175115208,0.00019286416,0.0016567069,-1.976753e-05,0.00035465133,-0.00015625867,0.0007527674,5.6932968e-05,0.00021715472,-0.0006807773,0.0022181268,-0.0011652196,0.0036420836
6.6491244239631335,0.00019276986,0.0016562492,-2.0063193e-05,0.00035999366,-0.00015580803,0.0007512731,5.769217e-05,0.00021990189,-0.0007019692,0.0022693754,-0.0011717909,0.003673694
6.74926267281106,0.00019267577,0.0016557843,-2.0358622e-05,0.00036533206,-0.00015535245,0.0007497661,5.844676e-05,0.000222627,-0.0007232177,0.0023210163,-0.0011779693,0.0037044527
6.849400921658987,0.00019257778,0.001655316,-2.0653724e-05,0.0003706669,-0.00015489142,0.00074824435,5.919645e-05,0.00022533018,-0.0007445142,0.0023730271,-0.0011837487,0.0037343742
6.949539170506912,0.00019248007,0.001654841,-2.094842e-05,0.00037599797,-0.00015442513,0.00074671156,5.9941252e-05,0.00022801053,-0.0007658525,0.0024253814,-0.0011891336,0.0037634561
7.049677419354839,0.00019237997,0.0016543589,-2.1242891e-05,0.00038132587,-0.00015395346,0.0007451648,6.068108e-05,0.00023066912,-0.00078722363,0.002478054,-0.0011941245,0.0037917006
7.149815668202765,0.00019227887,0.0016538715,-2.1536936e-05,0.00038664936,-0.00015347719,0.0007436059,6.141607e-05,0.00023330502,-0.00080861856,0.0025310195,-0.0011987255,0.0038191145
7.249953917050692,0.00019217718,0.001653379,-2.1830672e-05,0.00039196908,-0.00015299537,0.0007420343,6.214584e-05,0.0002359183,-0.00083003094,0.002584259,-0.0012029365,0.0038456996
7.350092165898618,0.00019207281,0.0016528791,-2.2124137e-05,0.00039728545,-0.00015250905,0.00074045133,6.2870655e-05,0.0002385092,-0.0008514526,0.0026377437,-0.0012067618,0.0038714607
7.450230414746544,0.00019196754,0.0016523765,-2.2417138e-05,0.00040259786,-0.00015201741,0.00073885685,6.359023e-05,0.00024107748,-0.00087287615,0.0026914568,-0.001210202,0.0038964066
7.550368663594471,0.0001918606,0.0016518645,-2.2709737e-05,0.00040790593,-0.00015152113,0.0007372508,6.430466e-05,0.00024362325,-0.00089429284,0.0027453718,-0.0012132574,0.0039205384
7.650506912442396,0.00019175185,0.0016513483,-2.3002034e-05,0.0004132106,-0.00015102043,0.00073563436,6.501414e-05,0.00024614646,-0.00091569853,0.0027994716,-0.0012159318,0.0039438554
7.750645161290323,0.00019164193,0.0016508248,-2.329405e-05,0.00041851058,-0.00015051432,0.0007340067,6.57182e-05,0.00024864686,-0.00093708205,0.0028537342,-0.0012182277,0.0039663757
7.850783410138249,0.00019153256,0.0016502978,-2.3585424e-05,0.00042380695,-0.00015000405,0.0007323691,6.641701e-05,0.00025112458,-0.00095843873,0.0029081425,-0.0012201528,0.0039880974
7.950921658986175,0.00019141927,0.0016497653,-2.3876706e-05,0.00042909937,-0.00014948909,0.00073072145,6.71105e-05,0.0002535798,-0.0009797616,0.0029626682,-0.0012217014,0.00400903
8.051059907834102,0.00019130507,0.0016492257,-2.416733e-05,0.000434387,-0.00014896972,0.0007290644,6.779859e-05,0.00025601234,-0.0010010448,0.003017301,-0.0012228823,0.0040291715
8.151198156682026,0.00019118896,0.0016486812,-2.445781e-05,0.00043967098,-0.00014844572,0.00072739716,6.8481284e-05,0.00025842246,-0.0010222757,0.0030720218,-0.0012236933,0.004048541
8.251336405529953,0.00019107168,0.0016481311,-2.4747627e-05,0.00044495094,-0.00014791756,0.0007257207,6.915853e-05,0.0002608092,-0.0010434549,0.0031268073,-0.0012241451,0.004067137
8.35147465437788,0.00019095348,0.0016475754,-2.5037105e-05,0.00045022584,-0.00014738462,0.00072403654,6.983054e-05,0.000263174,-0.0010645678,0.0031816417,-0.0012242355,0.004084965
8.451612903225806,0.00019083466,0.0016470146,-2.5326333e-05,0.00045549654,-0.00014684814,0.00072234205,7.049676e-05,0.0002655159,-0.0010856161,0.0032365094,-0.0012239725,0.004102038
8.551751152073733,0.00019071311,0.0016464479,-2.5615036e-05,0.00046076343,-0.00014630731,0.0007206392,7.115752e-05,0.0002678351,-0.0011065938,0.0032913936,-0.0012233548,0.0041183615
8.65188940092166,0.00019059141,0.0016458777,-2.590322e-05,0.00046602535,-0.00014576246,0.00071892934,7.1812916e-05,0.000270132,-0.0011274886,0.0033462802,-0.001222388,0.0041339444
8.752027649769584,0.0001904656,0.0016453014,-2.619108e-05,0.00047128348,-0.00014521345,0.00071721105,7.2462455e-05,0.00027240653,-0.001148298,0.0034011484,-0.0012210788,0.0041487897
8.85216589861751,0.00019034096,0.0016447195,-2.6478345e-05,0.00047653724,-0.00014466046,0.0007154853,7.3106625e-05,0.0002746583,-0.0011690145,0.0034559893,-0.0012194255,0.0041629113
8.952304147465437,0.00019021376,0.0016441342,-2.6765421e-05,0.00048178548,-0.00014410373,0.0007137518,7.3744995e-05,0.00027688764,-0.001189634,0.0035107846,-0.0012174357,0.004176318
9.052442396313364,0.00019008483,0.0016435408,-2.7051827e-05,0.0004870301,-0.0001435433,0.00071201223,7.437766e-05,0.00027909465,-0.0012101515,0.0035655168,-0.0012151145,0.004189006
9.15258064516129,0.00018995567,0.0016429445,-2.7337743e-05,0.00049227005,-0.00014297909,0.00071026443,7.500477e-05,0.00028127912,-0.0012305574,0.0036201735,-0.001212463,0.0042009954
9.252718894009217,0.00018982444,0.0016423427,-2.7623288e-05,0.00049750495,-0.00014241124,0.0007085113,7.562612e-05,0.0002834416,-0.0012508522,0.0036747484,-0.0012094867,0.004212295
9.352857142857141,0.00018969222,0.001641736,-2.7908387e-05,0.0005027356,-0.00014183983,0.0007067515,7.624166e-05,0.00028558177,-0.0012710261,0.0037292133,-0.0012061927,0.0042229076
9.452995391705068,0.00018955751,0.0016411248,-2.8192888e-05,0.0005079608,-0.00014126474,0.00070498476,7.685154e-05,0.00028769978,-0.0012910768,0.0037835718,-0.0012025794,0.004232847
9.553133640552995,0.00018942197,0.001640508,-2.8476994e-05,0.0005131822,-0.00014068643,0.00070321315,7.74556e-05,0.00028979583,-0.0013109995,0.0038378015,-0.001198656,0.004242119
9.653271889400921,0.00018928597,0.001639885,-2.876052e-05,0.000518399,-0.00014010482,0.00070143596,7.805386e-05,0.00029186968,-0.0013307872,0.0038918925,-0.0011944266,0.0042507355
9.753410138248848,0.00018914707,0.0016392572,-2.9043587e-05,0.0005236102,-0.0001395201,0.00069965306,7.864629e-05,0.00029392188,-0.0013504365,0.003945832,-0.0011898946,0.004258701
9.853548387096774,0.00018900725,0.001638629,-2.9326282e-05,0.0005288163,-0.00013893149,0.0006978655,7.9232894e-05,0.0002959521,-0.0013699463,0.00399961,-0.0011850626,0.0042660288
9.9536866359447,0.00018886622,0.0016379938,-2.9608274e-05,0.0005340181,-0.00013834039,0.0006960722,7.981359e-05,0.00029796094,-0.001389309,0.004053217,-0.0011799387,0.004272729
10.053824884792625,0.00018872363,0.0016373531,-2.9889743e-05,0.00053921505,-0.00013774626,0.000694275,8.038847e-05,0.00029994763,-0.0014085204,0.004106645,-0.0011745279,0.004278807
10.153963133640552,0.00018857884,0.0016367097,-3.0170651e-05,0.00054440694,-0.00013714875,0.0006924739,8.0957405e-05,0.00030191283,-0.001427572,0.0041598734,-0.0011688307,0.004284272
10.254101382488479,0.0001884341,0.0016360598,-3.0451174e-05,0.0005495937,-0.00013654829,0.00069066667,8.152055e-05,0.00030385688,-0.0014464682,0.004212898,-0.0011628558,0.004289141
10.354239631336405,0.00018828765,0.0016354058,-3.073101e-05,0.0005547756,-0.00013594543,0.0006888565,8.207773e-05,0.00030577945,-0.0014652052,0.004265713,-0.0011566078,0.0042934148
10.454377880184332,0.0001881389,0.0016347482,-3.1010393e-05,0.00055995217,-0.00013533953,0.0006870427,8.262893e-05,0.00030768057,-0.0014837716,0.0043183025,-0.0011500887,0.0042971047
10.554516129032258,0.00018798925,0.0016340857,-3.1289186e-05,0.0005651243,-0.00013473108,0.00068522507,8.3174426e-05,0.0003095606,-0.0015021688,0.004370662,-0.0011433029,0.004300221
10.654654377880183,0.00018783892,0.001633419,-3.1567426e-05,0.00057029095,-0.00013412007,0.0006834044,8.371363e-05,0.0003114192,-0.0015203954,0.0044227806,-0.0011362638,0.0043027787
10.75479262672811,0.00018768618,0.0016327499,-3.1845124e-05,0.000575452,-0.000133506,0.00068158016,8.424717e-05,0.00031325757,-0.0015384438,0.0044746576,-0.0011289655,0.004304783
10.854930875576036,0.00018753135,0.0016320738,-3.212219e-05,0.00058060867,-0.00013288998,0.00067975366,8.477472e-05,0.00031507516,-0.0015563127,0.0045262724,-0.0011214156,0.004306241
10.955069124423963,0.00018737657,0.0016313964,-3.2398675e-05,0.00058575935,-0.00013227107,0.0006779228,8.5296204e-05,0.00031687148,-0.0015739982,0.0045776237,-0.0011136273,0.004307164
11.05520737327189,0.00018721983,0.0016307149,-3.2674485e-05,0.0005909053,-0.00013165039,0.0006760905,8.5811735e-05,0.00031864736,-0.0015914959,0.004628706,-0.0011055924,0.0043075676
11.155345622119816,0.00018706206,0.0016300273,-3.294974e-05,0.0005960457,-0.00013102732,0.0006742555,8.632145e-05,0.000320403,-0.0016088119,0.0046795066,-0.0010973259,0.004307451
11.25548387096774,0.00018690262,0.0016293373,-3.322453e-05,0.0006011813,-0.00013040146,0.0006724185,8.682496e-05,0.000322138,-0.0016259332,0.004730027,-0.0010888312,0.0043068323
11.355622119815667,0.00018674068,0.0016286422,-3.349881e-05,0.00060631096,-0.00012977423,0.0006705796,8.732279e-05,0.00032385293,-0.0016428669,0.004780253,-0.0010801065,0.0043057166
11.455760368663594,0.00018657885,0.0016279445,-3.377222e-05,0.00061143556,-0.00012914444,0.00066873786,8.781453e-05,0.00032554785,-0.0016595991,0.0048301755,-0.0010711654,0.0043041194
11.55589861751152,0.00018641492,0.0016272436,-3.4045013e-05,0.0006165546,-0.00012851297,0.00066689536,8.830031e-05,0.00032722275,-0.0016761379,0.0048797987,-0.0010620108,0.00430204
11.656036866359447,0.00018625055,0.0016265374,-3.431723e-05,0.0006216685,-0.00012787941,0.00066505163,8.8780114e-05,0.00032887753,-0.001692476,0.004929117,-0.0010526407,0.004299501
11.756175115207373,0.00018608352,0.0016258258,-3.4588786e-05,0.00062677613,-0.00012724426,0.0006632061,8.9253954e-05,0.00033051276,-0.0017086124,0.004978111,-0.0010430687,0.004296498
11.8563133640553,0.0001859158,0.0016251163,-3.485995e-05,0.00063187943,-0.00012660706,0.00066135876,8.972174e-05,0.00033212823,-0.0017245424,0.005026795,-0.001033294,0.0042930483
11.956451612903225,0.00018574733,0.0016244003,-3.513013e-05,0.0006369763,-0.00012596807,0.0006595109,9.0183756e-05,0.00033372457,-0.0017402729,0.0050751395,-0.0010233277,0.004289165
12.056589861751151,0.00018557579,0.0016236799,-3.539978e-05,0.00064206833,-0.00012532764,0.0006576625,9.063969e-05,0.00033530136,-0.00175579,0.0051231603,-0.001013166,0.0042848536
12.156728110599078,0.00018540432,0.0016229555,-3.5669054e-05,0.0006471545,-0.00012468555,0.0006558135,9.1089765e-05,0.00033685923,-0.0017711038,0.0051708505,-0.0010028188,0.0042801173
12.256866359447004,0.00018523069,0.0016222309,-3.593709e-05,0.00065223523,-0.00012404207,0.0006539639,9.153384e-05,0.00033839763,-0.0017862084,0.005218198,-0.0009922932,0.004274975
12.35700460829493,0.00018505663,0.0016215015,-3.620483e-05,0.00065731024,-0.00012339711,0.000652113,9.197187e-05,0.00033991775,-0.0018010963,0.0052652005,-0.0009815918,0.0042694286
12.457142857142857,0.00018487975,0.0016207696,-3.64719e-05,0.0006623788,-0.00012275083,0.00065026217,9.2404305e-05,0.00034141843,-0.0018157781,0.00531186,-0.00097071426,0.004263495
12.557281105990782,0.00018470263,0.001620033,-3.6738147e-05,0.0006674427,-0.00012210337,0.0006484116,9.2830654e-05,0.0003429007,-0.0018302456,0.005358169,-0.00095967605,0.0042571803
12.657419354838709,0.00018452408,0.0016192943,-3.7003952e-05,0.00067250076,-0.00012145415,0.00064656127,9.325102e-05,0.00034436473,-0.0018444948,0.005404117,-0.00094847137,0.0042504906
12.757557603686635,0.00018434369,0.0016185517,-3.72687e-05,0.0006775533,-0.00012080422,0.0006447104,9.366546e-05,0.00034581005,-0.0018585308,0.005449712,-0.00093711074,0.0042434377
12.857695852534562,0.00018416221,0.0016178085,-3.7532856e-05,0.00068259914,-0.0001201529,0.00064286066,9.4074356e-05,0.00034723748,-0.0018723513,0.005494947,-0.00092559506,0.0042360267
12.957834101382488,0.00018397986,0.0016170599,-3.77963e-05,0.0006876398,-0.000119500626,0.0006410106,9.447717e-05,0.0003486464,-0.0018859539,0.0055398177,-0.00091393624,0.004228273
13.057972350230415,0.00018379478,0.0016163093,-3.805921e-05,0.0006926751,-0.00011884738,0.0006391622,9.4874085e-05,0.00035003782,-0.0018993389,0.0055843215,-0.00090213044,0.004220182
13.158110599078341,0.00018360886,0.001615558,-3.832127e-05,0.0006977036,-0.00011819309,0.0006373132,9.526516e-05,0.00035141106,-0.0019125063,0.0056284657,-0.00089018536,0.0042117625
13.258248847926266,0.00018342282,0.0016148014,-3.8582686e-05,0.0007027275,-0.00011753813,0.0006354655,9.565053e-05,0.00035276674,-0.0019254559,0.005672225,-0.0008781095,0.004203019
13.358387096774193,0.0001832349,0.0016140443,-3.884311e-05,0.00070774485,-0.00011688243,0.0006336194,9.6030046e-05,0.00035410526,-0.0019381824,0.0057156235,-0.0008658988,0.0041939705
13.45852534562212,0.00018304479,0.0016132834,-3.910307e-05,0.00071275653,-0.00011622584,0.00063177396,9.6403775e-05,0.0003554259,-0.0019506954,0.0057586376,-0.0008535653,0.004184618
13.558663594470046,0.00018285398,0.0016125202,-3.9362105e-05,0.00071776245,-0.00011556841,0.00062992884,9.677172e-05,0.00035672993,-0.0019629844,0.005801284,-0.00084111246,0.0041749673
13.658801843317972,0.00018266261,0.0016117567,-3.962036e-05,0.0007227617,-0.00011491069,0.00062808604,9.713396e-05,0.00035801672,-0.0019750565,0.005843546,-0.0008285391,0.0041650343
13.758940092165899,0.00018246836,0.0016109897,-3.987793e-05,0.00072775566,-0.00011425197,0.0006262449,9.749062e-05,0.0003592863,-0.0019869101,0.0058854297,-0.00081585505,0.0041548186
13.859078341013824,0.00018227336,0.0016102185,-4.0134993e-05,0.00073274376,-0.00011359312,0.00062440406,9.7841155e-05,0.00036053936,-0.0019985402,0.005926938,-0.00080306106,0.004144345
13.95921658986175,0.00018207743,0.0016094446,-4.039108e-05,0.00073772547,-0.00011293384,0.00062256603,9.818625e-05,0.00036177572,-0.002009951,0.005968061,-0.00079016556,0.004133603
14.059354838709677,0.000181879,0.001608671,-4.0646042e-05,0.000742702,-0.000112273745,0.00062072865,9.852569e-05,0.00036299537,-0.0020211453,0.006008796,-0.00077716686,0.0041226055
14.159493087557603,0.0001816804,0.0016078945,-4.09006e-05,0.0007476712,-0.00011161389,0.0006188938,9.885926e-05,0.0003641988,-0.0020321198,0.0060491543,-0.0007640743,0.0041113677
14.25963133640553,0.00018148049,0.0016071177,-4.115434e-05,0.0007526348,-0.0001109534,0.0006170607,9.91873e-05,0.00036538625,-0.0020428752,0.0060891192,-0.000750891,0.0040998887
14.359769585253456,0.00018127887,0.0016063383,-4.1407213e-05,0.00075759256,-0.00011029284,0.0006152295,9.950999e-05,0.00036655756,-0.0020534124,0.006128707,-0.0007376183,0.004088184
14.459907834101383,0.00018107727,0.0016055561,-4.1659325e-05,0.00076254405,-0.000109631896,0.0006134007,9.982701e-05,0.0003677129,-0.002063734,0.0061679105,-0.0007242634,0.0040762573
14.560046082949308,0.00018087176,0.0016047719,-4.191075e-05,0.0007674897,-0.00010897097,0.0006115736,0.00010013838,0.00036885214,-0.0020738333,0.0062067234,-0.0007108258,0.0040641124
14.660184331797234,0.00018066655,0.0016039865,-4.2161028e-05,0.00077242864,-0.00010831031,0.0006097496,0.000100444195,0.00036997622,-0.0020837185,0.0062451484,-0.000697315,0.004051764
14.76032258064516,0.00018045964,0.0016031975,-4.241103e-05,0.00077736244,-0.000107649124,0.00060792716,0.000100744495,0.00037108516,-0.0020933854,0.0062831854,-0.00068373047,0.0040392205
14.860460829493087,0.00018025139,0.00160241,-4.265944e-05,0.00078228913,-0.000106988184,0.0006061078,0.00010103937,0.0003721777,-0.0021028367,0.0063208477,-0.00067007757,0.004026477
14.960599078341014,0.00018004213,0.0016016182,-4.2907297e-05,0.0007872094,-0.000106327505,0.00060429063,0.00010132874,0.00037325572,-0.002112076,0.0063581103,-0.0006563594,0.0040135556
15.06073732718894,0.00017983287,0.00160083,-4.3154665e-05,0.0007921241,-0.000105666935,0.00060247583,0.00010161259,0.00037431865,-0.0021211007,0.006394994,-0.0006425818,0.0040004565
15.160875576036865,0.00017962094,0.0016000369,-4.3401018e-05,0.0007970331,-0.00010500626,0.0006006641,0.00010189132,0.0003753668,-0.0021299096,0.006431491,-0.000628745,0.0039871847
15.261013824884792,0.00017940754,0.0015992413,-4.364648e-05,0.00080193504,-0.00010434597,0.0005988555,0.00010216448,0.00037639972,-0.00213851,0.006467601,-0.0006148535,0.0039737495
15.361152073732718,0.00017919292,0.0015984467,-4.3891163e-05,0.00080683106,-0.000103686034,0.00059704913,0.00010243229,0.00037741874,-0.0021468955,0.0065033333,-0.00060091325,0.0039601587
15.461290322580645,0.00017897767,0.0015976508,-4.4134984e-05,0.0008117213,-0.00010302676,0.000595246,0.00010269487,0.00037842267,-0.0021550714,0.0065386677,-0.0005869255,0.00394642
15.561428571428571,0.00017876101,0.0015968515,-4.4377462e-05,0.0008166036,-0.00010236768,0.00059344555,0.00010295215,0.00037941238,-0.0021630353,0.0065736254,-0.0005728932,0.0039325394
15.661566820276498,0.00017854251,0.0015960538,-4.461987e-05,0.0008214812,-0.00010170878,0.00059164857,0.000103203914,0.00038038785,-0.0021707977,0.0066082054,-0.00055882084,0.003918521
15.761705069124423,0.0001783227,0.0015952548,-4.486072e-05,0.0008263522,-0.00010105078,0.0005898537,0.0001034505,0.00038134912,-0.0021783495,0.006642397,-0.0005447116,0.0039043701
15.86184331797235,0.00017810146,0.0015944543,-4.510093e-05,0.0008312163,-0.00010039285,0.00058806327,0.000103691855,0.00038229677,-0.0021856946,0.0066762045,-0.0005305675,0.0038900988
15.961981566820276,0.00017788043,0.0015936526,-4.5340494e-05,0.0008360744,-9.973568e-05,0.000586276,0.000103928534,0.00038323028,-0.0021928349,0.0067096394,-0.00051639375,0.0038757129
16.062119815668204,0.00017765707,0.0015928524,-4.557876e-05,0.00084092555,-9.907937e-05,0.0005844912,0.00010415974,0.00038415063,-0.0021997686,0.006742689,-0.0005021906,0.0038612154
16.162258064516127,0.00017743406,0.0015920482,-4.5816552e-05,0.00084577204,-9.842352e-05,0.00058271043,0.000104385595,0.00038505657,-0.0022065071,0.0067753647,-0.0004879655,0.0038466158
16.262396313364054,0.000177208,0.0015912454,-4.605326e-05,0.0008506108,-9.776853e-05,0.0005809332,0.00010460634,0.00038595,-0.002213037,0.0068076625,-0.00047371676,0.003831916
16.36253456221198,0.00017698102,0.0015904437,-4.628881e-05,0.00085544295,-9.711416e-05,0.00057915883,0.00010482252,0.00038682992,-0.00221937,0.006839583,-0.00045944998,0.0038171252
16.462672811059907,0.00017675273,0.0015896393,-4.6524114e-05,0.0008602698,-9.646072e-05,0.00057738804,0.00010503334,0.00038769632,-0.0022255045,0.006871131,-0.0004451685,0.003802249
16.562811059907833,0.00017652297,0.0015888346,-4.6757876e-05,0.00086509,-9.580813e-05,0.00057562126,0.00010523912,0.00038854984,-0.0022314454,0.00690231,-0.00043087304,0.0037872933
16.66294930875576,0.00017629194,0.0015880314,-4.699081e-05,0.00086990325,-9.515629e-05,0.00057385827,0.00010544014,0.00038939103,-0.002237186,0.006933115,-0.00041656772,0.0037722627
16.763087557603686,0.00017606065,0.0015872257,-4.7222882e-05,0.0008747108,-9.450545e-05,0.0005720981,0.00010563623,0.00039021915,-0.0022427305,0.006963553,-0.0004022538,0.0037571632
16.863225806451613,0.00017582766,0.0015864215,-4.7453614e-05,0.000879512,-9.3855444e-05,0.00057034264,0.00010582736,0.0003910348,-0.0022480886,0.0069936058,-0.00038793517,0.0037420024
16.96336405529954,0.00017559393,0.0015856167,-4.7684487e-05,0.0008843051,-9.3206545e-05,0.00056859077,0.000106013526,0.00039183802,-0.0022532549,0.00702331,-0.0003736156,0.0037267827
17.063502304147466,0.00017535943,0.0015848131,-4.7913614e-05,0.00088909327,-9.2558665e-05,0.00056684227,0.00010619493,0.0003926283,-0.0022582267,0.0070526376,-0.00035929712,0.0037115114
17.163640552995393,0.000175122,0.0015840073,-4.8141916e-05,0.0008938738,-9.1912014e-05,0.0005650979,0.00010637167,0.00039340695,-0.0022630144,0.007081616,-0.00034498045,0.0036961967
17.26377880184332,0.00017488458,0.0015832031,-4.8369195e-05,0.0008986479,-9.1266236e-05,0.0005633571,0.00010654347,0.00039417343,-0.0022676128,0.0071102222,-0.0003306691,0.0036808406
17.363917050691242,0.00017464545,0.0015823989,-4.859557e-05,0.0009034168,-9.062179e-05,0.0005616206,0.00010671053,0.00039492748,-0.0022720287,0.007138465,-0.00031636647,0.0036654458
17.46405529953917,0.00017440609,0.0015815952,-4.8821086e-05,0.0009081795,-8.997856e-05,0.00055988785,0.00010687319,0.00039567024,-0.0022762595,0.0071663656,-0.00030207285,0.003650024
17.564193548387095,0.0001741639,0.0015807918,-4.9045895e-05,0.00091293326,-8.93364e-05,0.0005581591,0.00010703099,0.00039640086,-0.0022803051,0.0071938867,-0.00028779305,0.003634574
17.664331797235022,0.00017392267,0.0015799877,-4.9269136e-05,0.00091768225,-8.869558e-05,0.0005564349,0.000107184154,0.00039712017,-0.00228418,0.00722107,-0.0002735273,0.0036191058
17.76447004608295,0.0001736781,0.0015791866,-4.9491722e-05,0.0009224246,-8.805602e-05,0.0005547147,0.00010733266,0.0003978279,-0.0022878705,0.007247899,-0.00025927942,0.0036036216
17.864608294930875,0.00017343395,0.0015783836,-4.971325e-05,0.0009271602,-8.741785e-05,0.00055299816,0.00010747653,0.0003985243,-0.0022913858,0.0072743734,-0.00024505105,0.0035881293
17.9647465437788,0.00017318799,0.001577584,-4.9934e-05,0.0009318889,-8.678091e-05,0.0005512855,0.00010761632,0.00039920965,-0.0022947274,0.007300507,-0.00023084432,0.0035726288
18.064884792626728,0.00017294139,0.0015767833,-5.0153558e-05,0.0009366115,-8.614529e-05,0.0005495773,0.00010775124,0.00039988392,-0.0022978913,0.0073262816,-0.00021665875,0.00355713
18.165023041474655,0.0001726927,0.0015759829,-5.037202e-05,0.00094132696,-8.551137e-05,0.00054787414,0.000107881795,0.00040054647,-0.0023008827,0.007351718,-0.0002024997,0.0035416351
18.26516129032258,0.00017244217,0.0015751856,-5.0589617e-05,0.0009460361,-8.4878724e-05,0.00054617476,0.000108007946,0.00040119895,-0.002303709,0.00737681,-0.00018836977,0.0035261486
18.365299539170508,0.00017219341,0.0015743882,-5.080638e-05,0.00095073954,-8.424755e-05,0.0005444789,0.00010812986,0.00040184034,-0.0023063675,0.00740157,-0.00017426793,0.0035106698
18.465437788018434,0.0001719408,0.0015735908,-5.1022053e-05,0.00095543626,-8.361803e-05,0.0005427878,0.00010824726,0.00040247102,-0.0023088527,0.0074259886,-0.00016019652,0.0034952199
18.56557603686636,0.00017168964,0.0015727971,-5.123638e-05,0.00096012466,-8.298967e-05,0.00054110127,0.00010836024,0.00040309157,-0.0023111773,0.007450067,-0.00014615928,0.0034797813
18.665714285714284,0.00017143541,0.0015719992,-5.1449995e-05,0.0009648087,-8.2363345e-05,0.0005394191,0.00010846916,0.00040370133,-0.002313337,0.0074738106,-0.00013215673,0.0034643733
18.76585253456221,0.00017118048,0.0015712101,-5.1662584e-05,0.00096948456,-8.173848e-05,0.0005377409,0.000108573775,0.0004043009,-0.0023153392,0.0074972217,-0.000118192314,0.0034489986
18.865990783410137,0.00017092444,0.0015704164,-5.187391e-05,0.00097415445,-8.111502e-05,0.00053606776,0.00010867417,0.00040489004,-0.0023171827,0.007520308,-0.0001042647,0.0034336597
18.966129032258063,0.0001706668,0.0015696288,-5.20844e-05,0.0009788165,-8.04934e-05,0.00053439866,0.0001087703,0.0004054695,-0.0023188638,0.007543066,-9.037868e-05,0.003418352
19.06626728110599,0.00017040898,0.0015688383,-5.229409e-05,0.0009834745,-7.9873455e-05,0.0005327333,0.00010886242,0.0004060388,-0.002320393,0.007565492,-7.653304e-05,0.0034030972
19.166405529953916,0.00017015023,0.0015680529,-5.2502746e-05,0.0009881243,-7.9255144e-05,0.0005310731,0.000108950364,0.00040659812,-0.0023217637,0.0075876005,-6.273035e-05,0.0033878835
19.266543778801843,0.0001698888,0.0015672684,-5.2709733e-05,0.0009927668,-7.863864e-05,0.0005294168,0.00010903437,0.00040714763,-0.0023229837,0.007609391,-4.897358e-05,0.0033727214
19.36668202764977,0.00016962737,0.0015664846,-5.291684e-05,0.0009974036,-7.802376e-05,0.0005277657,0.00010911445,0.00040768806,-0.002324057,0.007630856,-3.52632e-05,0.0033576144
19.466820276497696,0.00016936427,0.0015657041,-5.3121257e-05,0.0010020334,-7.741077e-05,0.00052611885,0.00010919024,0.00040821833,-0.0023249732,0.0076520112,-2.1599451e-05,0.0033425696
19.566958525345623,0.00016910155,0.0015649246,-5.332589e-05,0.0010066562,-7.679948e-05,0.0005244764,0.00010926213,0.00040873923,-0.002325749,0.0076728496,-7.9862075e-06,0.0033275832
19.66709677419355,0.00016883675,0.0015641457,-5.3528765e-05,0.0010112728,-7.6190154e-05,0.0005228386,0.000109330234,0.00040925096,-0.0023263763,0.0076933736,5.5765313e-06,0.0033126643
19.767235023041476,0.00016857019,0.0015633705,-5.3730975e-05,0.0010158827,-7.558261e-05,0.0005212055,0.00010939453,0.00040975338,-0.002326864,0.0077135935,1.9087613e-05,0.003297815
19.867373271889402,0.0001683035,0.001562597,-5.3931773e-05,0.001020486,-7.497674e-05,0.0005195765,0.00010945491,0.00041024655,-0.0023272035,0.007733498,3.2545508e-05,0.0032830392
19.967511520737325,0.0001680353,0.001561826,-5.413214e-05,0.0010250838,-7.4372896e-05,0.00051795196,0.0001095114,0.0004107308,-0.0023274084,0.007753102,4.5949182e-05,0.0032683436
20.067649769585252,0.00016776712,0.0015610586,-5.4330896e-05,0.0010296729,-7.377101e-05,0.00051633274,0.00010956416,0.00041120607,-0.0023274713,0.007772407,5.9297105e-05,0.003253728
20.16778801843318,0.00016749716,0.0015602914,-5.452892e-05,0.0010342563,-7.3171075e-05,0.0005147175,0.00010961326,0.00041167266,-0.0023274014,0.0077914125,7.258757e-05,0.0032391967
20.267926267281105,0.00016722555,0.0015595285,-5.4725504e-05,0.0010388329,-7.257297e-05,0.00051310693,0.000109658344,0.00041213064,-0.0023271916,0.007810114,8.5820415e-05,0.00322475
20.36806451612903,0.00016695376,0.0015587668,-5.4920867e-05,0.0010434024,-7.1976894e-05,0.0005115013,0.000109699904,0.00041257948,-0.0023268498,0.007828522,9.899366e-05,0.0032103967
20.468202764976958,0.00016668063,0.0015580072,-5.5115546e-05,0.001047966,-7.138277e-05,0.0005098995,0.000109737855,0.00041302,-0.00232638,0.007846631,0.00011210676,0.0031961366
20.568341013824885,0.00016640605,0.0015572518,-5.5309356e-05,0.0010525227,-7.079064e-05,0.00050830294,0.000109772394,0.000413452,-0.0023257835,0.007864456,0.00012515894,0.0031819723
20.66847926267281,0.00016613136,0.0015564992,-5.5501907e-05,0.0010570723,-7.020066e-05,0.000506711,0.00010980321,0.00041387609,-0.0023250543,0.007881995,0.00013814888,0.0031679093
20.768617511520738,0.00016585416,0.0015557484,-5.5693323e-05,0.0010616159,-6.961254e-05,0.0005051237,0.00010983054,0.00041429157,-0.0023241981,0.007899237,0.00015107477,0.0031539504
20.868755760368664,0.00016557677,0.0015550007,-5.5883407e-05,0.0010661518,-6.902658e-05,0.0005035406,0.0001098543,0.000414699,-0.0023232207,0.007916208,0.00016393725,0.0031400977
20.96889400921659,0.00016529892,0.0015542565,-5.6072444e-05,0.0010706816,-6.8442496e-05,0.0005019628,0.00010987445,0.00041509807,-0.0023221204,0.007932877,0.00017673368,0.0031263558
21.069032258064517,0.00016501966,0.0015535159,-5.6260433e-05,0.001075205,-6.7860754e-05,0.0005003891,0.00010989161,0.0004154896,-0.002320898,0.007949287,0.00018946502,0.003112724
21.169170506912444,0.00016473967,0.0015527763,-5.6447476e-05,0.0010797213,-6.7281e-05,0.00049882027,0.0001099051,0.00041587313,-0.002319558,0.007965405,0.0002021287,0.0030992061
21.269308755760367,0.00016445867,0.0015520403,-5.6632976e-05,0.0010842313,-6.670328e-05,0.00049725577,0.000109915316,0.00041624808,-0.0023181029,0.007981263,0.00021472546,0.0030858081
21.369447004608293,0.00016417637,0.0015513096,-5.681798e-05,0.0010887344,-6.612787e-05,0.0004956963,0.00010992213,0.00041661644,-0.0023165264,0.007996833,0.00022725342,0.0030725289
21.46958525345622,0.00016389345,0.0015505807,-5.7001093e-05,0.0010932303,-6.5554384e-05,0.0004941414,0.000109925895,0.00041697652,-0.0023148393,0.00801214,0.00023971198,0.0030593718
21.569723502304146,0.00016361034,0.0015498572,-5.718364e-05,0.0010977206,-6.4983185e-05,0.00049259065,0.00010992612,0.00041732914,-0.0023130425,0.008027182,0.0002520994,0.0030463492
21.669861751152073,0.00016332335,0.0015491357,-5.736467e-05,0.0011022034,-6.4414206e-05,0.00049104553,0.00010992312,0.00041767448,-0.0023111273,0.00804195,0.00026441782,0.0030334487
21.77,0.00016303807,0.0015484166,-5.7545276e-05,0.001106681,-6.384724e-05,0.00048950483,0.00010991679,0.0004180122,-0.0023091093,0.008056457,0.00027666442,0.0030206793
21.870138248847926,0.00016275085,0.001547704,-5.7724043e-05,0.0011111497,-6.328256e-05,0.00048796838,0.000109907916,0.00041834303,-0.002306978,0.008070702,0.00028883805,0.0030080406
21.970276497695853,0.00016246253,0.0015469936,-5.7902136e-05,0.0011156119,-6.272014e-05,0.00048643674,0.00010989531,0.00041866652,-0.002304753,0.008084689,0.00030094155,0.0029955406
22.07041474654378,0.00016217261,0.0015462864,-5.8078786e-05,0.0011200685,-6.2159954e-05,0.00048490954,0.00010988015,0.00041898238,-0.0023024152,0.008098411,0.00031297075,0.002983178
22.170552995391706,0.0001618835,0.001545585,-5.825421e-05,0.0011245173,-6.16018e-05,0.00048338744,0.00010986134,0.00041929167,-0.0022999737,0.008111893,0.00032492532,0.0029709563
22.270691244239632,0.00016159342,0.0015448865,-5.8428872e-05,0.0011289599,-6.104607e-05,0.00048186988,0.000109840024,0.000419594,-0.0022974308,0.008125119,0.00033680597,0.0029588789
22.37082949308756,0.00016130095,0.0015441922,-5.8602145e-05,0.0011333973,-6.04926e-05,0.00048035686,0.000109815555,0.00041988963,-0.0022947947,0.008138092,0.00034861214,0.002946944
22.470967741935482,0.00016100856,0.0015435008,-5.877467e-05,0.0011378266,-5.9941372e-05,0.00047884838,0.00010978815,0.00042017785,-0.0022920615,0.008150809,0.00036034296,0.002935157
22.57110599078341,0.00016071457,0.0015428166,-5.8945476e-05,0.0011422484,-5.9392376e-05,0.00047734444,0.00010975764,0.0004204594,-0.0022892237,0.008163288,0.00037199736,0.0029235154
22.671244239631335,0.000160421,0.0015421347,-5.911541e-05,0.0011466661,-5.8845486e-05,0.00047584553,0.00010972453,0.00042073475,-0.002286298,0.008175518,0.00038357676,0.002912027
22.77138248847926,0.00016012463,0.0015414564,-5.928405e-05,0.0011510742,-5.8301077e-05,0.0004743509,0.000109688364,0.0004210033,-0.0022832802,0.008187516,0.00039507874,0.0029006926
22.871520737327188,0.00015982824,0.0015407836,-5.9451762e-05,0.0011554772,-5.7758993e-05,0.00047286085,0.00010964962,0.00042126552,-0.0022801678,0.008199263,0.00040650408,0.002889509
22.971658986175115,0.00015953183,0.0015401159,-5.9617956e-05,0.0011598724,-5.7219022e-05,0.0004713761,0.000109607914,0.0004215213,-0.0022769647,0.008210785,0.00041785213,0.002878487
23.07179723502304,0.00015923359,0.001539453,-5.978346e-05,0.0011642626,-5.668141e-05,0.00046989557,0.00010956357,0.0004217701,-0.0022736776,0.008222057,0.00042912253,0.002867621
23.171935483870968,0.00015893417,0.0015387918,-5.994753e-05,0.0011686459,-5.6146146e-05,0.00046841943,0.000109516244,0.00042201325,-0.0022702974,0.008233103,0.00044031406,0.0028569142
23.272073732718894,0.00015863379,0.0015381387,-6.011027e-05,0.0011730226,-5.561317e-05,0.00046694788,0.00010946635,0.0004222499,-0.0022668361,0.008243918,0.0004514285,0.0028463705
23.37221198156682,0.00015833316,0.0015374881,-6.0272203e-05,0.0011773899,-5.5082808e-05,0.00046548116,0.000109413944,0.0004224804,-0.0022632868,0.00825451,0.0004624641,0.002835984
23.472350230414747,0.0001580308,0.0015368449,-6.0432732e-05,0.0011817537,-5.4554563e-05,0.0004640194,0.00010935891,0.0004227049,-0.0022596593,0.008264869,0.00047342118,0.0028257703
23.572488479262674,0.00015772873,0.0015362047,-6.0591872e-05,0.0011861087,-5.4028595e-05,0.00046256173,0.00010930121,0.00042292353,-0.002255956,0.008275001,0.00048429854,0.0028157176
23.6726267281106,0.00015742434,0.0015355727,-6.075041e-05,0.0011904578,-5.3505053e-05,0.0004611088,0.00010924091,0.00042313623,-0.0022521634,0.008284913,0.0004950953,0.0028058349
23.772764976958523,0.00015712042,0.0015349424,-6.0907394e-05,0.0011948011,-5.298376e-05,0.00045966043,0.000109177854,0.0004233431,-0.0022482965,0.008294609,0.0005058136,0.00279612
23.87290322580645,0.00015681547,0.0015343187,-6.106284e-05,0.0011991364,-5.2464962e-05,0.00045821667,0.00010911261,0.0004235435,-0.0022443512,0.008304074,0.00051645323,0.002786574
23.973041474654377,0.00015650934,0.0015337006,-6.121775e-05,0.0012034674,-5.1948467e-05,0.0004567767,0.00010904484,0.00042373914,-0.0022403349,0.008313337,0.00052701216,0.0027771997
24.073179723502303,0.00015620209,0.0015330871,-6.137107e-05,0.0012077889,-5.143439e-05,0.00045534252,0.000108974746,0.0004239285,-0.0022362454,0.008322371,0.000537491,0.0027679985
24.17331797235023,0.00015589448,0.0015324799,-6.152307e-05,0.0012121034,-5.0922656e-05,0.00045391225,0.00010890206,0.0004241124,-0.0022320773,0.0083312,0.0005478902,0.0027589693
24.273456221198156,0.00015558608,0.0015318773,-6.1674335e-05,0.0012164132,-5.0413215e-05,0.000452487,0.00010882702,0.0004242907,-0.0022278447,0.008339827,0.00055820897,0.0027501143
24.373594470046083,0.00015527691,0.0015312787,-6.182429e-05,0.0012207156,-4.990623e-05,0.0004510661,0.00010874959,0.0004244642,-0.002223535,0.008348229,0.0005684474,0.0027414344
24.47373271889401,0.00015496647,0.0015306909,-6.197331e-05,0.0012250127,-4.940143e-05,0.00044964883,0.00010866981,0.00042463146,-0.0022191638,0.008356437,0.00057860423,0.0027329335
24.573870967741936,0.00015465502,0.0015301048,-6.2120555e-05,0.0012293019,-4.889945e-05,0.0004482371,0.00010858795,0.00042479354,-0.0022147237,0.0083644325,0.0005886821,0.0027246068
24.674009216589862,0.00015434362,0.0015295258,-6.226653e-05,0.0012335853,-4.83996e-05,0.00044682948,0.00010850364,0.0004249503,-0.0022102133,0.008372236,0.0005986782,0.0027164593
24.77414746543779,0.00015403073,0.0015289526,-6.241193e-05,0.0012378608,-4.7902064e-05,0.0004454266,0.0001084172,0.00042510228,-0.0022056436,0.008379831,0.0006085939,0.0027084898
24.874285714285715,0.00015371726,0.0015283858,-6.2555846e-05,0.001242131,-4.7406953e-05,0.00044402768,0.00010832843,0.00042524867,-0.0022010095,0.008387216,0.00061842985,0.002700703
24.974423963133642,0.0001534033,0.0015278247,-6.2698215e-05,0.0012463941,-4.691428e-05,0.00044263402,0.00010823768,0.0004253902,-0.0021963126,0.008394428,0.0006281848,0.0026930936
25.074562211981565,0.00015308791,0.0015272684,-6.2839754e-05,0.0012506504,-4.6424022e-05,0.00044124396,0.00010814449,0.00042552638,-0.0021915552,0.008401435,0.0006378583,0.0026856605
25.17470046082949,0.0001527716,0.0015267206,-6.2979845e-05,0.0012549005,-4.5936136e-05,0.00043985905,0.00010804927,0.0004256581,-0.0021867394,0.008408247,0.0006474531,0.002678411
25.274838709677418,0.00015245493,0.0015261767,-6.3118976e-05,0.0012591435,-4.545069e-05,0.00043847822,0.00010795203,0.0004257845,-0.0021818648,0.0084148655,0.00065696525,0.0026713447
25.374976958525345,0.00015213694,0.0015256404,-6.325663e-05,0.0012633797,-4.4967426e-05,0.00043710167,0.000107852684,0.00042590647,-0.0021769342,0.008421296,0.00066639716,0.0026644545
25.47511520737327,0.00015181847,0.001525111,-6.339347e-05,0.0012676104,-4.4486802e-05,0.00043572971,0.00010775146,0.00042602298,-0.00217195,0.008427537,0.00067575,0.0026577518
25.575253456221198,0.00015149957,0.0015245873,-6.3528794e-05,0.0012718335,-4.4008473e-05,0.00043436227,0.00010764822,0.00042613485,-0.0021669085,0.008433596,0.00068502134,0.002651227
25.675391705069124,0.00015117983,0.0015240709,-6.366281e-05,0.0012760491,-4.3532542e-05,0.00043299937,0.000107542764,0.00042624207,-0.0021618137,0.008439474,0.0006942126,0.0026448865
25.77552995391705,0.00015085953,0.0015235605,-6.3795706e-05,0.0012802598,-4.3059095e-05,0.00043164063,0.00010743558,0.00042634516,-0.002156663,0.008445163,0.0007033231,0.002638729
25.875668202764977,0.00015053827,0.0015230599,-6.39274e-05,0.0012844632,-4.2587955e-05,0.00043028648,0.0001073263,0.00042644283,-0.0021514634,0.008450671,0.0007123546,0.0026327518
25.975806451612904,0.00015021481,0.0015225627,-6.4058004e-05,0.0012886613,-4.211927e-05,0.00042893612,0.000107215164,0.00042653675,-0.0021462212,0.008456008,0.0007213064,0.002626957
26.07594470046083,0.00014989312,0.0015220727,-6.418688e-05,0.0012928501,-4.1652842e-05,0.00042759048,0.000107102285,0.0004266262,-0.0021409236,0.008461163,0.00073017844,0.0026213406
26.176082949308757,0.00014956841,0.0015215904,-6.4315165e-05,0.0012970353,-4.118898e-05,0.0004262495,0.000106987485,0.000426711,-0.0021355776,0.008466145,0.00073896965,0.0026159128
26.276221198156684,0.0001492441,0.0015211144,-6.444186e-05,0.0013012121,-4.072742e-05,0.00042491246,0.00010687074,0.00042679044,-0.0021301876,0.0084709525,0.0007476815,0.0026106625
26.376359447004607,0.00014892018,0.0015206465,-6.456776e-05,0.0013053821,-4.0268205e-05,0.0004235801,0.000106752035,0.00042686652,-0.0021247522,0.008475588,0.0007563138,0.0026055963
26.476497695852533,0.00014859364,0.001520187,-6.469186e-05,0.0013095473,-3.9811497e-05,0.00042225196,0.000106632106,0.000426938,-0.0021192688,0.008480061,0.00076486816,0.0026007083
26.57663594470046,0.00014826785,0.0015197311,-6.4814965e-05,0.0013137049,-3.935712e-05,0.0004209279,0.00010651005,0.00042700567,-0.0021137435,0.0084843505,0.0007733431,0.0025960035
26.676774193548386,0.0001479403,0.001519284,-6.4937034e-05,0.0013178556,-3.8905077e-05,0.00041960803,0.000106386244,0.00042706856,-0.002108182,0.008488485,0.0007817378,0.002591477
26.776912442396313,0.00014761223,0.0015188472,-6.505774e-05,0.0013220006,-3.8455517e-05,0.00041829256,0.00010626102,0.00042712793,-0.0021025732,0.008492453,0.0007900563,0.0025871308
26.87705069124424,0.00014728322,0.0015184145,-6.5176886e-05,0.0013261393,-3.8008217e-05,0.00041698117,0.00010613379,0.00042718236,-0.0020969273,0.008496254,0.0007982942,0.0025829661
26.977188940092166,0.00014695339,0.0015179925,-6.529511e-05,0.001330271,-3.756339e-05,0.0004156744,0.00010600514,0.00042723335,-0.0020912397,0.008499895,0.00080645527,0.0025789759
27.077327188940092,0.00014662353,0.0015175758,-6.541195e-05,0.0013343944,-3.7120913e-05,0.0004143718,0.00010587498,0.00042728035,-0.0020855188,0.008503381,0.00081453647,0.002575169
27.17746543778802,0.00014629285,0.0015171679,-6.552733e-05,0.0013385139,-3.668081e-05,0.0004130729,0.00010574304,0.00042732336,-0.0020797579,0.008506704,0.00082254206,0.0025715316
27.277603686635945,0.00014596122,0.0015167651,-6.564185e-05,0.0013426244,-3.6243113e-05,0.00041177895,0.00010560925,0.00042736265,-0.0020739583,0.008509871,0.0008304683,0.0025680747
27.377741935483872,0.00014562893,0.0015163729,-6.57552e-05,0.0013467319,-3.5807705e-05,0.00041048866,0.00010547444,0.00042739793,-0.002068125,0.008512878,0.0008383193,0.0025647942
27.4778801843318,0.00014529523,0.0015159877,-6.586677e-05,0.0013508295,-3.5374753e-05,0.00040920265,0.00010533776,0.00042742927,-0.0020622595,0.008515741,0.0008460935,0.0025616873
27.578018433179725,0.00014496202,0.001515609,-6.5977634e-05,0.0013549234,-3.494405e-05,0.00040792103,0.000105199455,0.0004274569,-0.0020563575,0.00851845,0.00085378916,0.0025587492
27.678156682027648,0.00014462753,0.0015152413,-6.608711e-05,0.0013590084,-3.451575e-05,0.0004066435,0.00010506011,0.00042748073,-0.0020504277,0.008521008,0.00086140836,0.0025559908
27.778294930875575,0.0001442934,0.0015148803,-6.619522e-05,0.0013630881,-3.4089822e-05,0.00040536982,0.00010491918,0.00042750122,-0.0020444612,0.00852341,0.0008689526,0.002553401
27.8784331797235,0.0001439574,0.0015145282,-6.630219e-05,0.0013671606,-3.3666216e-05,0.0004041007,0.000104776744,0.00042751787,-0.00203847,0.008525665,0.00087641925,0.0025509822
27.978571428571428,0.00014362061,0.0015141837,-6.640757e-05,0.0013712283,-3.3244945e-05,0.00040283505,0.000104632825,0.0004275309,-0.0020324446,0.008527784,0.00088381174,0.0025487354
28.078709677419354,0.0001432842,0.0015138496,-6.651191e-05,0.0013752884,-3.2826072e-05,0.00040157407,0.00010448748,0.00042753993,-0.0020263928,0.008529752,0.0008911282,0.0025466536
28.17884792626728,0.000142947,0.0015135213,-6.661512e-05,0.0013793412,-3.2409476e-05,0.00040031687,0.00010434096,0.000427546,-0.0020203097,0.008531581,0.00089837145,0.0025447393
28.278986175115207,0.00014260854,0.0015131998,-6.6716995e-05,0.001383389,-3.199515e-05,0.0003990639,0.00010419309,0.00042754857,-0.0020142016,0.008533266,0.00090553926,0.0025429889
28.379124423963134,0.00014226935,0.0015128908,-6.6817716e-05,0.0013874308,-3.158321e-05,0.0003978148,0.00010404378,0.00042754723,-0.0020080707,0.008534812,0.00091263105,0.0025414084
28.47926267281106,0.0001419301,0.0015125887,-6.6917084e-05,0.0013914645,-3.1173597e-05,0.0003965702,0.0001038931,0.00042754313,-0.0020019105,0.008536221,0.0009196475,0.0025399874
28.579400921658987,0.00014158883,0.0015122961,-6.70153e-05,0.0013954937,-3.0766398e-05,0.0003953292,0.00010374125,0.00042753562,-0.0019957272,0.008537488,0.0009265945,0.0025387309
28.679539170506914,0.00014124859,0.0015120124,-6.711178e-05,0.0013995155,-3.0361347e-05,0.00039409223,0.00010358819,0.00042752505,-0.0019895204,0.008538616,0.0009334663,0.0025376347
28.77967741935484,0.0001409075,0.0015117374,-6.720739e-05,0.0014035301,-2.9958685e-05,0.00039285986,0.00010343383,0.00042751053,-0.0019832908,0.008539617,0.0009402639,0.0025366936
28.879815668202767,0.00014056571,0.0015114702,-6.730178e-05,0.0014075392,-2.9558252e-05,0.0003916306,0.00010327811,0.0004274929,-0.0019770372,0.008540488,0.0009469894,0.002535913
28.97995391705069,0.00014022242,0.0015112136,-6.7395085e-05,0.0014115415,-2.9160185e-05,0.00039040565,0.00010312129,0.0004274723,-0.0019707654,0.00854123,0.00095364254,0.0025352868
29.080092165898616,0.00013987944,0.0015109644,-6.748656e-05,0.0014155378,-2.8764345e-05,0.00038918486,0.00010296359,0.00042744866,-0.0019644732,0.008541832,0.0009602251,0.0025348195
29.180230414746543,0.00013953555,0.0015107271,-6.757726e-05,0.0014195264,-2.8370889e-05,0.00038796826,0.00010280441,0.00042742188,-0.001958157,0.008542314,0.00096673204,0.0025344992
29.28036866359447,0.00013919064,0.0015104959,-6.7666064e-05,0.0014235089,-2.7979602e-05,0.0003867548,0.00010264398,0.00042739135,-0.0019518237,0.00854266,0.0009731694,0.002534333
29.380506912442396,0.0001388468,0.0015102748,-6.775431e-05,0.0014274864,-2.7590644e-05,0.0003855457,0.00010248271,0.0004273584,-0.001945475,0.008542883,0.000979538,0.0025343208
29.480645161290322,0.00013850027,0.0015100635,-6.7840956e-05,0.0014314567,-2.720392e-05,0.00038434064,0.00010232034,0.00042732203,-0.0019391058,0.008542976,0.0009858337,0.002534453
29.58078341013825,0.00013815341,0.0015098618,-6.792639e-05,0.0014354221,-2.6819424e-05,0.0003831397,0.00010215664,0.0004272834,-0.0019327207,0.008542954,0.0009920592,0.002534731
29.680921658986176,0.00013780568,0.0015096697,-6.8010224e-05,0.0014393787,-2.6437228e-05,0.00038194217,0.00010199212,0.00042724094,-0.0019263182,0.008542811,0.0009982159,0.0025351557
29.781059907834102,0.0001374582,0.0015094866,-6.809324e-05,0.001443332,-2.6057272e-05,0.00038074833,0.00010182649,0.0004271961,-0.0019199013,0.008542548,0.0010043014,0.002535721
29.88119815668203,0.00013711193,0.0015093123,-6.817453e-05,0.0014472768,-2.5679532e-05,0.00037955883,0.000101659825,0.00042714845,-0.0019134745,0.008542155,0.0010103179,0.0025364268
29.981336405529955,0.00013676149,0.0015091483,-6.825521e-05,0.0014512137,-2.5304049e-05,0.00037837308,0.00010149214,0.00042709775,-0.0019070236,0.008541654,0.0010162658,0.0025372754
30.08147465437788,0.00013641414,0.001508997,-6.833432e-05,0.0014551487,-2.4930778e-05,0.0003771908,0.00010132369,0.00042704382,-0.0019005646,0.008541021,0.0010221455,0.002538261
30.181612903225805,0.00013606377,0.0015088515,-6.841206e-05,0.0014590746,-2.4559751e-05,0.00037601285,0.00010115394,0.00042698765,-0.0018940917,0.008540292,0.0010279564,0.0025393823
30.28175115207373,0.00013571362,0.0015087168,-6.848849e-05,0.001462995,-2.4190858e-05,0.00037483856,0.00010098337,0.00042692886,-0.0018876091,0.008539439,0.0010337003,0.0025406354
30.381889400921658,0.00013536226,0.0015085933,-6.856358e-05,0.001466908,-2.3824274e-05,0.0003736679,0.00010081168,0.000426867,-0.0018811121,0.008538476,0.0010393771,0.0025420268
30.482027649769584,0.00013501137,0.0015084787,-6.8637804e-05,0.0014708156,-2.3459783e-05,0.00037250077,0.0001006395,0.00042680267,-0.0018746055,0.0085374,0.0010449857,0.0025435423
30.58216589861751,0.00013465945,0.0015083752,-6.8710295e-05,0.0014747165,-2.3097518e-05,0.0003713379,0.00010046636,0.0004267357,-0.0018680926,0.008536216,0.00105053,0.0025451917
30.682304147465437,0.00013430647,0.0015082805,-6.8781716e-05,0.0014786099,-2.2737539e-05,0.0003701787,0.00010029221,0.0004266661,-0.0018615646,0.008534907,0.001056008,0.002546967
30.782442396313364,0.00013395435,0.0015081981,-6.8851965e-05,0.001482499,-2.2379609e-05,0.000369023,0.00010011712,0.00042659434,-0.001855028,0.008533507,0.0010614187,0.0025488639
30.88258064516129,0.00013360077,0.0015081209,-6.892053e-05,0.0014863822,-2.2023898e-05,0.00036787105,9.994116e-05,0.00042651885,-0.001848487,0.008531992,0.001066763,0.0025508862
30.982718894009217,0.0001332457,0.0015080598,-6.898794e-05,0.0014902583,-2.1670352e-05,0.000366723,9.976452e-05,0.00042644152,-0.0018419332,0.008530376,0.0010720433,0.0025530308
31.082857142857144,0.00013289205,0.0015080072,-6.905427e-05,0.0014941277,-2.1318958e-05,0.0003655786,9.9587065e-05,0.0004263621,-0.0018353751,0.008528641,0.0010772626,0.0025552958
31.18299539170507,0.00013253665,0.0015079655,-6.911931e-05,0.0014979912,-2.0969674e-05,0.00036443787,9.9408724e-05,0.00042627976,-0.0018288094,0.008526826,0.0010824112,0.0025576747
31.283133640552997,0.0001321803,0.0015079342,-6.9182715e-05,0.0015018479,-2.0622536e-05,0.00036330067,9.922986e-05,0.00042619527,-0.0018222366,0.008524893,0.0010874984,0.002560176
31.383271889400923,0.00013182433,0.0015079115,-6.924533e-05,0.0015056991,-2.0277555e-05,0.00036216725,9.905e-05,0.00042610816,-0.001815662,0.008522861,0.0010925252,0.0025627837
31.483410138248846,0.00013146756,0.0015079032,-6.9306436e-05,0.0015095441,-1.9934756e-05,0.00036103732,9.886953e-05,0.00042601826,-0.0018090785,0.008520726,0.0010974865,0.0025655048
31.583548387096773,0.00013111037,0.0015079026,-6.936564e-05,0.0015133816,-1.9593994e-05,0.00035991124,9.868803e-05,0.0004259266,-0.0018024899,0.0085184965,0.0011023858,0.0025683388
31.6836866359447,0.00013075284,0.0015079126,-6.942464e-05,0.001517214,-1.9255405e-05,0.00035878856,9.850614e-05,0.0004258324,-0.0017959024,0.008516162,0.0011072231,0.0025712769
31.783824884792626,0.00013039379,0.0015079355,-6.948184e-05,0.0015210406,-1.8918863e-05,0.00035766978,9.8323646e-05,0.00042573616,-0.0017893076,0.008513737,0.0011119979,0.0025743274
31.883963133640552,0.00013003557,0.0015079681,-6.95376e-05,0.0015248609,-1.8584411e-05,0.000356554,9.814035e-05,0.0004256374,-0.0017827097,0.008511217,0.0011167122,0.002577478
31.98410138248848,0.00012967682,0.0015080112,-6.959258e-05,0.0015286743,-1.8252058e-05,0.00035544223,9.795626e-05,0.00042553642,-0.0017761097,0.008508593,0.0011213626,0.0025807314
32.08423963133641,0.00012931589,0.0015080669,-6.964606e-05,0.0015324809,-1.7921822e-05,0.0003543338,9.7771466e-05,0.0004254335,-0.0017695078,0.008505878,0.0011259547,0.0025840881
32.18437788018433,0.00012895676,0.0015081321,-6.969811e-05,0.001536283,-1.7593546e-05,0.0003532288,9.7586206e-05,0.00042532777,-0.0017629027,0.008503074,0.0011304878,0.0025875405
32.284516129032255,0.00012859554,0.0015082089,-6.974855e-05,0.0015400797,-1.7267446e-05,0.00035212765,9.740022e-05,0.0004252204,-0.0017562981,0.008500179,0.0011349597,0.00259109
32.38465437788018,0.00012823418,0.0015082965,-6.979795e-05,0.0015438678,-1.6943352e-05,0.00035102988,9.7213786e-05,0.00042511066,-0.0017496926,0.008497191,0.001139374,0.002594736
32.48479262672811,0.00012787305,0.0015083964,-6.984653e-05,0.0015476512,-1.6621309e-05,0.00034993573,9.702663e-05,0.00042499873,-0.00174309,0.008494109,0.0011437251,0.0025984757
32.584930875576035,0.00012751081,0.001508509,-6.989346e-05,0.0015514267,-1.6301254e-05,0.0003488449,9.683887e-05,0.00042488496,-0.0017364796,0.008490942,0.0011480224,0.0026023064
32.68506912442396,0.0001271472,0.0015086305,-6.993902e-05,0.0015551978,-1.5983309e-05,0.0003477578,9.6650736e-05,0.00042476907,-0.001729877,0.008487686,0.0011522594,0.0026062229
32.78520737327189,0.00012678506,0.0015087627,-6.998331e-05,0.0015589631,-1.5667383e-05,0.0003466741,9.646201e-05,0.00042465096,-0.0017232777,0.008484345,0.0011564377,0.0026102345
32.885345622119814,0.00012642125,0.0015089076,-7.002615e-05,0.0015627207,-1.5353417e-05,0.00034559393,9.627267e-05,0.00042453126,-0.0017166737,0.008480924,0.0011605613,0.0026143293
32.98548387096774,0.00012605778,0.0015090662,-7.00683e-05,0.0015664737,-1.5041496e-05,0.00034451683,9.608279e-05,0.00042440914,-0.0017100751,0.008477402,0.0011646262,0.0026185063
33.08562211981567,0.00012569356,0.0015092334,-7.010817e-05,0.0015702201,-1.4731556e-05,0.00034344348,9.589241e-05,0.0004242857,-0.0017034778,0.008473807,0.0011686349,0.0026227662
33.185760368663594,0.00012532862,0.0015094123,-7.014744e-05,0.0015739597,-1.4423572e-05,0.0003423734,9.570148e-05,0.0004241592,-0.0016968854,0.008470124,0.0011725861,0.0026271073
33.28589861751152,0.00012496392,0.0015096058,-7.018528e-05,0.0015776935,-1.411761e-05,0.00034130705,9.5510404e-05,0.00042403158,-0.0016902902,0.008466368,0.0011764836,0.0026315288
33.38603686635945,0.00012459727,0.0015098096,-7.022192e-05,0.0015814217,-1.3813634e-05,0.0003402433,9.531852e-05,0.00042390212,-0.0016837008,0.008462518,0.0011803242,0.0026360245
33.486175115207374,0.00012423203,0.0015100256,-7.025738e-05,0.0015851429,-1.3511578e-05,0.00033918355,9.512621e-05,0.00042377054,-0.0016771153,0.008458598,0.001184109,0.002640599
33.5863133640553,0.0001238645,0.0015102518,-7.029139e-05,0.0015888594,-1.3211491e-05,0.00033812714,9.493358e-05,0.00042363687,-0.001670542,0.008454597,0.001187843,0.002645244
33.68645161290323,0.00012349912,0.0015104904,-7.03238e-05,0.001592568,-1.2913354e-05,0.0003370741,9.474061e-05,0.00042350154,-0.0016639655,0.008450523,0.0011915187,0.002649964
33.78658986175115,0.00012313052,0.001510742,-7.0355185e-05,0.0015962711,-1.26171535e-05,0.00033602392,9.454669e-05,0.00042336495,-0.0016573973,0.008446357,0.001195146,0.0026547527
33.88672811059908,0.00012276306,0.0015110053,-7.038514e-05,0.0015999709,-1.23229065e-05,0.00033497726,9.435292e-05,0.00042322557,-0.001650828,0.008442122,0.0011987141,0.0026596123
33.986866359447006,0.00012239453,0.0015112805,-7.041405e-05,0.0016036622,-1.2030549e-05,0.00033393386,9.4158786e-05,0.00042308503,-0.0016442715,0.008437805,0.0012022321,0.0026645358
34.08700460829493,0.000122026446,0.001511568,-7.044097e-05,0.0016073476,-1.1740107e-05,0.00033289398,9.39639e-05,0.00042294283,-0.0016377198,0.008433421,0.0012056988,0.0026695265
34.18714285714286,0.00012165636,0.0015118681,-7.046715e-05,0.0016110262,-1.1451572e-05,0.00033185756,9.376879e-05,0.00042279845,-0.0016311734,0.00842896,0.001209111,0.0026745803
34.287281105990786,0.000121286714,0.0015121808,-7.049238e-05,0.001614699,-1.1164941e-05,0.00033082382,9.357349e-05,0.00042265275,-0.0016246329,0.008424428,0.0012124713,0.0026796975
34.38741935483871,0.00012091824,0.0015125045,-7.051602e-05,0.0016183662,-1.0880207e-05,0.0003297939,9.33777e-05,0.00042250537,-0.0016181007,0.008419829,0.001215781,0.002684876
34.48755760368664,0.000120547455,0.0015128412,-7.053765e-05,0.0016220293,-1.0597301e-05,0.00032876706,9.318153e-05,0.00042235618,-0.0016115764,0.008415146,0.001219042,0.0026901118
34.587695852534566,0.00012017606,0.0015131896,-7.055927e-05,0.0016256835,-1.03163175e-05,0.00032774344,9.298513e-05,0.0004222056,-0.0016050583,0.008410397,0.0012222496,0.0026954077
34.687834101382485,0.00011980464,0.0015135537,-7.0578826e-05,0.0016293328,-1.0037177e-05,0.00032672303,9.278834e-05,0.00042205324,-0.0015985521,0.00840558,0.0012254062,0.0027007568
34.78797235023041,0.00011943394,0.0015139246,-7.0597074e-05,0.0016329752,-9.759832e-06,0.00032570603,9.2591414e-05,0.00042189905,-0.0015920512,0.008400688,0.0012285162,0.00270616
34.88811059907834,0.00011906286,0.001514314,-7.061434e-05,0.001636613,-9.484422e-06,0.00032469185,9.239397e-05,0.0004217437,-0.0015855605,0.008395735,0.0012315736,0.0027116193
34.988248847926265,0.000118689415,0.0015147146,-7.062995e-05,0.0016402449,-9.210801e-06,0.00032368087,9.2196286e-05,0.0004215866,-0.001579078,0.008390714,0.0012345838,0.0027171283
35.08838709677419,0.000118317184,0.001515126,-7.0643975e-05,0.0016438698,-8.938993e-06,0.00032267312,9.199855e-05,0.0004214277,-0.0015726051,0.008385618,0.0012375462,0.0027226873
35.18852534562212,0.000117944575,0.0015155523,-7.065779e-05,0.0016474887,-8.66903e-06,0.00032166872,9.180043e-05,0.00042126764,-0.001566136,0.008380466,0.0012404593,0.002728297
35.288663594470044,0.00011757123,0.001515988,-7.066973e-05,0.0016511034,-8.400854e-06,0.0003206676,9.1602094e-05,0.0004211061,-0.0015596804,0.008375246,0.0012433247,0.0027339521
35.38880184331797,0.000117197436,0.001516438,-7.068036e-05,0.0016547106,-8.134567e-06,0.0003196696,9.140343e-05,0.00042094247,-0.0015532374,0.008369962,0.0012461424,0.0027396516
35.4889400921659,0.000116823496,0.0015169036,-7.068977e-05,0.0016583123,-7.869984e-06,0.00031867417,9.120466e-05,0.00042077785,-0.001546803,0.00836461,0.0012489154,0.0027453988
35.589078341013824,0.00011644942,0.001517379,-7.069755e-05,0.0016619076,-7.6072088e-06,0.000317682,9.1005684e-05,0.00042061158,-0.0015403806,0.0083592,0.0012516398,0.0027511911
35.68921658986175,0.00011607401,0.0015178681,-7.070383e-05,0.001665498,-7.3461515e-06,0.0003166935,9.080642e-05,0.00042044438,-0.0015339651,0.00835373,0.0012543178,0.0027570212
35.78935483870968,0.00011570034,0.0015183701,-7.070898e-05,0.0016690817,-7.086959e-06,0.0003157074,9.0607e-05,0.00042027532,-0.0015275627,0.008348198,0.001256949,0.002762894
35.889493087557604,0.000115323804,0.001518887,-7.0713e-05,0.0016726587,-6.8294685e-06,0.00031472492,9.040739e-05,0.0004201047,-0.0015211744,0.0083426,0.0012595345,0.0027688039
35.98963133640553,0.00011494789,0.0015194152,-7.071602e-05,0.0016762328,-6.5737113e-06,0.00031374538,9.020755e-05,0.00041993294,-0.001514793,0.008336944,0.0012620764,0.0027747527
36.08976958525346,0.00011457234,0.001519957,-7.0717535e-05,0.0016797964,-6.319722e-06,0.0003127686,9.0007474e-05,0.00041975992,-0.0015084265,0.008331231,0.0012645733,0.0027807378
36.18990783410138,0.0001141956,0.0015205117,-7.07177e-05,0.001683357,-6.067448e-06,0.000311795,8.9807225e-05,0.0004195854,-0.0015020695,0.0083254585,0.0012670258,0.0027867598
36.29004608294931,0.000113819384,0.0015210806,-7.07166e-05,0.0016869113,-5.8168985e-06,0.00031082434,8.960709e-05,0.00041940896,-0.0014957278,0.008319634,0.0012694336,0.0027928143
36.390184331797236,0.00011344153,0.0015216608,-7.071408e-05,0.0016904597,-5.5680503e-06,0.00030985705,8.940664e-05,0.0004192321,-0.0014893934,0.008313735,0.0012717985,0.002798903
36.49032258064516,0.00011306397,0.0015222579,-7.070971e-05,0.0016940022,-5.320928e-06,0.00030889246,8.920613e-05,0.00041905383,-0.001483078,0.008307794,0.0012741203,0.0028050202
36.59046082949309,0.00011268723,0.001522864,-7.0704795e-05,0.0016975387,-5.075536e-06,0.00030793078,8.9005334e-05,0.00041887385,-0.0014767707,0.008301799,0.0012763963,0.0028111725
36.690599078341016,0.00011230928,0.0015234865,-7.069843e-05,0.0017010717,-4.8318097e-06,0.0003069723,8.880469e-05,0.00041869294,-0.0014704791,0.008295746,0.0012786321,0.0028173532
36.79073732718894,0.000111930014,0.001524123,-7.069057e-05,0.0017045937,-4.589779e-06,0.00030601665,8.8603774e-05,0.0004185107,-0.001464198,0.00828963,0.0012808276,0.002823564
36.89087557603687,0.00011155168,0.0015247704,-7.068154e-05,0.0017081127,-4.349359e-06,0.00030506428,8.8402885e-05,0.00041832685,-0.0014579331,0.008283472,0.0012829783,0.0028297966
36.991013824884796,0.00011117311,0.0015254327,-7.0671165e-05,0.0017116263,-4.1106505e-06,0.00030411463,8.820175e-05,0.00041814215,-0.0014516771,0.008277254,0.0012850879,0.0028360581
37.09115207373272,0.00011079266,0.0015261087,-7.0659225e-05,0.0017151339,-3.8735284e-06,0.0003031678,8.800063e-05,0.00041795627,-0.0014454386,0.008270994,0.0012871592,0.0028423425
37.19129032258065,0.00011041423,0.0015267973,-7.0646565e-05,0.0017186366,-3.638188e-06,0.00030222395,8.779944e-05,0.00041776907,-0.001439215,0.008264669,0.0012891844,0.0028486536
37.29142857142857,0.00011003371,0.001527501,-7.0632166e-05,0.0017221309,-3.4043378e-06,0.00030128323,8.7598186e-05,0.00041758077,-0.0014330061,0.0082583,0.0012911718,0.0028549896
37.391566820276495,0.00010965405,0.0015282191,-7.0616785e-05,0.0017256205,-3.1722182e-06,0.0003003455,8.739689e-05,0.00041739122,-0.0014268083,0.0082518775,0.0012931231,0.0028613452
37.49170506912442,0.000109272834,0.0015289481,-7.059986e-05,0.0017291054,-2.9416844e-06,0.00029941037,8.7195556e-05,0.00041720088,-0.0014206262,0.0082454095,0.0012950293,0.0028677208
37.59184331797235,0.0001088928,0.0015296948,-7.058183e-05,0.0017325823,-2.712765e-06,0.0002984779,8.699416e-05,0.00041700897,-0.0014144565,0.008238888,0.001296898,0.00287412
37.691981566820274,0.00010851069,0.0015304504,-7.056235e-05,0.0017360548,-2.4854144e-06,0.00029754874,8.679268e-05,0.0004168159,-0.0014083063,0.008232322,0.0012987262,0.0028805304
37.7921198156682,0.00010813071,0.0015312227,-7.054189e-05,0.0017395215,-2.2597164e-06,0.0002966222,8.6591244e-05,0.00041662154,-0.0014021675,0.008225712,0.0013005156,0.0028869642
37.89225806451613,0.00010774813,0.0015320099,-7.0519425e-05,0.0017429829,-2.0355783e-06,0.00029569876,8.638971e-05,0.000416427,-0.0013960461,0.008219047,0.001302269,0.0028934139
37.992396313364054,0.0001073663,0.0015328074,-7.049577e-05,0.0017464377,-1.8129905e-06,0.0002947779,8.618826e-05,0.0004162306,-0.0013899371,0.008212331,0.001303983,0.0028998803
38.09253456221198,0.000106984,0.0015336233,-7.0470895e-05,0.0017498868,-1.5919994e-06,0.00029385972,8.598669e-05,0.000416033,-0.001383845,0.008205582,0.0013056607,0.0029063649
38.19267281105991,0.00010660185,0.0015344516,-7.0445036e-05,0.0017533313,-1.3725553e-06,0.00029294507,8.578532e-05,0.00041583477,-0.001377772,0.00819878,0.0013073,0.0029128613
38.292811059907834,0.00010621917,0.0015352928,-7.041789e-05,0.001756767,-1.1546944e-06,0.00029203243,8.558393e-05,0.00041563527,-0.0013717073,0.008191934,0.0013089011,0.0029193661
38.39294930875576,0.00010583647,0.0015361494,-7.038932e-05,0.0017602005,-9.3837264e-07,0.00029112294,8.538233e-05,0.00041543494,-0.0013656626,0.008185044,0.0013104675,0.0029258898
38.49308755760369,0.00010545268,0.0015370203,-7.035886e-05,0.0017636241,-7.2355726e-07,0.00029021612,8.518086e-05,0.00041523343,-0.0013596327,0.008178106,0.001311996,0.0029324226
38.59322580645161,0.000105069004,0.0015379045,-7.032756e-05,0.0017670465,-5.102995e-07,0.0002893123,8.497963e-05,0.00041503122,-0.0013536176,0.008171128,0.0013134902,0.002938964
38.69336405529954,0.00010468503,0.0015388025,-7.0295384e-05,0.0017704602,-2.985749e-07,0.00028841099,8.477813e-05,0.00041482763,-0.0013476231,0.008164112,0.0013149487,0.0029455225
38.79350230414747,0.000104301274,0.001539714,-7.0261456e-05,0.0017738703,-8.8294655e-08,0.00028751267,8.457696e-05,0.000414623,-0.0013416423,0.008157046,0.0013163704,0.0029520835
38.89364055299539,0.00010391752,0.0015406425,-7.02256e-05,0.0017772733,1.2043219e-07,0.00028661697,8.437571e-05,0.0004144178,-0.001335681,0.008149945,0.0013177573,0.0029586554
38.99377880184332,0.0001035336,0.0015415834,-7.018982e-05,0.0017806705,3.2768074e-07,0.00028572415,8.417465e-05,0.00041421136,-0.0013297314,0.008142793,0.0013191075,0.0029652352
39.093917050691246,0.000103147584,0.0015425379,-7.0151626e-05,0.0017840622,5.334018e-07,0.0002848339,8.397359e-05,0.00041400403,-0.0013237986,0.008135618,0.0013204293,0.002971823
39.19405529953917,0.00010276294,0.0015435078,-7.011307e-05,0.0017874496,7.3771156e-07,0.00028394622,8.377241e-05,0.00041379608,-0.0013178836,0.008128384,0.001321712,0.002978413
39.2941935483871,0.00010237843,0.0015444915,-7.0071896e-05,0.0017908276,9.404773e-07,0.0002830614,8.3571445e-05,0.00041358688,-0.0013119865,0.0081211245,0.0013229611,0.002985008
39.394331797235026,0.00010199251,0.0015454913,-7.003003e-05,0.0017942032,1.1418547e-06,0.00028217936,8.337061e-05,0.00041337652,-0.0013061072,0.00811382,0.0013241784,0.002991612
39.49447004608295,0.00010160716,0.001546504,-6.998726e-05,0.0017975731,1.3417294e-06,0.0002813,8.316985e-05,0.00041316598,-0.0013002433,0.00810648,0.001325363,0.0029982186
39.59460829493088,0.000101221245,0.001547532,-6.994243e-05,0.0018009363,1.5401696e-06,0.00028042332,8.296915e-05,0.00041295402,-0.0012943965,0.008099096,0.0013265127,0.0030048282
39.694746543778805,0.000100834804,0.0015485742,-6.989699e-05,0.0018042948,1.7372095e-06,0.00027954913,8.276859e-05,0.00041274118,-0.0012885655,0.008091686,0.0013276304,0.0030114416
39.794884792626725,0.00010044797,0.0015496307,-6.9849906e-05,0.0018076448,1.9328018e-06,0.0002786777,8.256825e-05,0.00041252773,-0.0012827554,0.008084232,0.0013287182,0.0030180572
39.89502304147465,0.00010006195,0.0015507005,-6.980143e-05,0.0018109903,2.126935e-06,0.00027780875,8.236782e-05,0.0004123133,-0.0012769595,0.0080767395,0.001329773,0.003024674
39.99516129032258,9.967504e-05,0.0015517874,-6.975203e-05,0.0018143313,2.3196442e-06,0.00027694248,8.216761e-05,0.00041209784,-0.0012711813,0.008069212,0.0013307941,0.0030312908
40.095299539170504,9.928823e-05,0.0015528883,-6.970121e-05,0.0018176677,2.5110055e-06,0.00027607917,8.196757e-05,0.00041188204,-0.0012654222,0.00806165,0.0013317871,0.003037905
40.19543778801843,9.8901844e-05,0.0015540014,-6.9648755e-05,0.0018209957,2.7009703e-06,0.00027521802,8.176754e-05,0.00041166524,-0.0012596814,0.008054058,0.0013327467,0.0030445228
40.29557603686636,9.851338e-05,0.0015551333,-6.9595066e-05,0.0018243195,2.8895142e-06,0.00027435977,8.15677e-05,0.00041144717,-0.0012539577,0.008046422,0.0013336773,0.0030511387
40.395714285714284,9.8125995e-05,0.0015562783,-6.954006e-05,0.0018276352,3.0766762e-06,0.0002735041,8.1368e-05,0.00041122857,-0.0012482504,0.008038761,0.0013345742,0.0030577506
40.49585253456221,9.773743e-05,0.0015574342,-6.948423e-05,0.0018309479,3.2624791e-06,0.00027265077,8.1168444e-05,0.00041100942,-0.001242561,0.008031059,0.0013354435,0.0030643623
40.59599078341014,9.7349686e-05,0.0015586072,-6.9426584e-05,0.0018342559,3.446904e-06,0.00027180053,8.096914e-05,0.00041078948,-0.0012368909,0.008023333,0.0013362844,0.0030709687
40.696129032258064,9.696205e-05,0.0015597978,-6.936823e-05,0.0018375561,3.629957e-06,0.00027095227,8.076975e-05,0.00041056855,-0.001231239,0.0080155665,0.0013370937,0.003077573
40.79626728110599,9.657371e-05,0.0015609994,-6.9307614e-05,0.0018408509,3.8116748e-06,0.0002701068,8.057088e-05,0.000410347,-0.0012256055,0.008007775,0.0013378728,0.0030841772
40.89640552995392,9.6185504e-05,0.001562216,-6.92461e-05,0.001844139,3.9920637e-06,0.00026926398,8.0371916e-05,0.0004101246,-0.0012199874,0.007999951,0.0013386267,0.0030907716
40.99654377880184,9.57968e-05,0.0015634495,-6.918341e-05,0.001847424,4.171144e-06,0.00026842355,8.017322e-05,0.00040990184,-0.0012143886,0.007992086,0.0013393478,0.0030973637
41.09668202764977,9.540752e-05,0.001564699,-6.911907e-05,0.0018507028,4.3488317e-06,0.00026758568,7.997462e-05,0.00040967745,-0.0012088104,0.007984203,0.0013400405,0.0031039475
41.1968202764977,9.50187e-05,0.001565959,-6.905445e-05,0.001853977,4.5252573e-06,0.00026675034,7.97763e-05,0.00040945312,-0.0012032472,0.007976282,0.0013407085,0.0031105287
41.29695852534562,9.462907e-05,0.0015672372,-6.898692e-05,0.0018572429,4.700339e-06,0.00026591745,7.957812e-05,0.00040922794,-0.0011977014,0.007968335,0.001341347,0.003117103
41.39709677419355,9.424057e-05,0.0015685294,-6.891906e-05,0.0018605043,4.8741035e-06,0.0002650872,7.938014e-05,0.00040900198,-0.0011921792,0.007960357,0.0013419568,0.0031236697
41.497235023041476,9.3850314e-05,0.0015698371,-6.884995e-05,0.0018637616,5.04658e-06,0.00026425943,7.918239e-05,0.0004087757,-0.001186673,0.007952355,0.0013425415,0.0031302238
41.5973732718894,9.3460636e-05,0.0015711577,-6.877904e-05,0.0018670108,5.21782e-06,0.00026343402,7.8984674e-05,0.0004085478,-0.0011811822,0.007944316,0.0013430993,0.0031367806
41.69751152073733,9.307045e-05,0.0015724954,-6.870768e-05,0.0018702548,5.387711e-06,0.00026261105,7.878733e-05,0.0004083204,-0.0011757138,0.007936251,0.0013436263,0.00314332
41.797649769585256,9.267992e-05,0.0015738466,-6.8634006e-05,0.0018734963,5.556383e-06,0.0002617909,7.8590296e-05,0.00040809147,-0.0011702613,0.007928163,0.0013441313,0.0031498529
41.89778801843318,9.228994e-05,0.0015752128,-6.855903e-05,0.0018767316,5.7237608e-06,0.00026097283,7.839331e-05,0.00040786248,-0.0011648296,0.007920046,0.0013446113,0.003156379
41.99792626728111,9.1900925e-05,0.0015765962,-6.848334e-05,0.0018799565,5.889851e-06,0.0002601573,7.819652e-05,0.0004076326,-0.0011594146,0.007911898,0.0013450623,0.0031628928
42.098064516129035,9.150926e-05,0.0015779914,-6.840619e-05,0.0018831807,6.0547195e-06,0.00025934417,7.799998e-05,0.00040740176,-0.0011540194,0.007903721,0.0013454861,0.0031693985
42.19820276497696,9.1120244e-05,0.0015794027,-6.832784e-05,0.0018863978,6.2183417e-06,0.00025853366,7.780362e-05,0.00040717048,-0.001148645,0.007895522,0.0013458868,0.003175894
42.29834101382489,9.072773e-05,0.001580831,-6.8247624e-05,0.0018896094,6.380727e-06,0.00025772542,7.7607634e-05,0.0004069387,-0.0011432862,0.007887305,0.0013462623,0.0031823765
42.39847926267281,9.033614e-05,0.0015822721,-6.816631e-05,0.0018928142,6.5418667e-06,0.0002569195,7.7411874e-05,0.00040670607,-0.0011379445,0.007879055,0.0013466103,0.0031888513
42.498617511520735,8.994536e-05,0.0015837287,-6.808417e-05,0.0018960162,6.7018395e-06,0.00025611615,7.721634e-05,0.0004064733,-0.0011326255,0.007870784,0.0013469371,0.00319531
42.59875576036866,8.9554014e-05,0.0015852012,-6.80003e-05,0.0018992105,6.8605473e-06,0.0002553154,7.70209e-05,0.00040623956,-0.0011273224,0.007862488,0.0013472356,0.0032017594
42.69889400921659,8.916243e-05,0.0015866879,-6.791547e-05,0.0019024004,7.018063e-06,0.00025451637,7.682581e-05,0.0004060053,-0.0011220421,0.007854161,0.0013475129,0.0032081986
42.799032258064514,8.877166e-05,0.0015881911,-6.782826e-05,0.0019055842,7.1743807e-06,0.0002537204,7.663102e-05,0.00040577046,-0.0011167781,0.007845817,0.0013477685,0.00321462
42.89917050691244,8.8379165e-05,0.0015897076,-6.774056e-05,0.0019087614,7.3294837e-06,0.00025292643,7.643627e-05,0.0004055352,-0.0011115313,0.0078374585,0.001347995,0.0032210343
42.99930875576037,8.7988155e-05,0.0015912411,-6.7651585e-05,0.0019119342,7.48343e-06,0.0002521348,7.624203e-05,0.00040529936,-0.0011063052,0.007829055,0.0013481986,0.0032274318
43.099447004608294,8.759487e-05,0.0015927881,-6.756143e-05,0.0019151021,7.636194e-06,0.0002513455,7.604793e-05,0.00040506307,-0.0011010985,0.007820645,0.0013483828,0.0032338141
43.19958525345622,8.720396e-05,0.0015943493,-6.746962e-05,0.0019182626,7.78779e-06,0.00025055883,7.585407e-05,0.00040482596,-0.0010959094,0.00781221,0.0013485434,0.0032401874
43.29972350230415,8.68111e-05,0.0015959291,-6.7376364e-05,0.0019214192,7.938193e-06,0.00024977437,7.566046e-05,0.0004045882,-0.0010907401,0.0078037544,0.0013486792,0.0032465416
43.39986175115207,8.6419146e-05,0.0015975228,-6.728201e-05,0.0019245696,8.087455e-06,0.00024899215,7.5467105e-05,0.00040435026,-0.001085591,0.0077952733,0.001348794,0.003252885
43.5,8.602665e-05,0.0015991302,-6.71865e-05,0.0019277163,8.235592e-06,0.00024821245,7.5274125e-05,0.00040411152,-0.0010804588,0.0077867676,0.0013488871,0.003259212
